-2.064119689748622477e-05 1.633006031624972820e-04 1.554415648570284247e-04 1.151407268480397761e-04 3.773593925870954990e-05 2.670311005203984678e-06 -1.869823790912050754e-05 1.030544081004336476e-05 1.800568861654028296e-04 -5.513728319783695042e-05 1.253217196790501475e-04 -3.226764383725821972e-04 8.196182898245751858e-05 -6.812605715822428465e-05 -1.562461402500048280e-04 1.982921967282891273e-04 7.072641164995729923e-05 1.603904092917218804e-05 -2.254869177704676986e-04 2.009538548009004444e-06 1.437734681530855596e-06 4.565357448882423341e-05 -7.334286055993288755e-05 -2.359874779358506203e-04 4.720470315078273416e-05 -8.647399226902052760e-06 2.189654333051294088e-05 9.604357182979583740e-05 1.388601813232526183e-04 -1.149619929492473602e-04 -3.546235529938712716e-05 1.564330013934522867e-04 -3.549810935510322452e-05 -1.417173189111053944e-05 6.615589518332853913e-05 -3.060345261474139988e-05 -5.294608854455873370e-06 1.178978927782736719e-04 -8.457169315079227090e-05 -1.031850479193963110e-04 -4.009645781479775906e-04 -3.447110357228666544e-04 -1.112368045141920447e-04
-8.834929030854254961e-05 1.121167879318818450e-04 -1.072532613761723042e-04 -9.362845594296231866e-05 4.266781161277322099e-06 -6.961876351851969957e-05 -2.171107480535283685e-04 2.710979897528886795e-04 -6.384975131368264556e-05 -2.094042793032713234e-05 -2.362875966355204582e-05 -1.493649906478822231e-04 4.379971142043359578e-05 1.406758528901264071e-04 1.978005748242139816e-04 -2.147831837646663189e-04 1.871601270977407694e-04 -3.209738497389480472e-05 2.892728662118315697e-04 -1.113070640712976456e-02 -1.736509730108082294e-04 -1.451208663638681173e-05 1.193710704683326185e-04 9.030544606503099203e-05 -2.852017641998827457e-04 -1.272435620194301009e-04 -3.496590215945616364e-05 -1.734036777634173632e-04 -5.846998828928917646e-05 4.522650851868093014e-05 -5.031155160395428538e-05 2.038865932263433933e-04 -4.908597911708056927e-04 -1.166753645520657301e-05 -4.347326757851988077e-04 1.853246067184954882e-05 2.737616887316107750e-05 -7.741655281279236078e-05 1.205887165269814432e-04 7.309909051400609314e-06 -7.183344132499769330e-05 2.529118210077285767e-04 3.670545993372797966e-06
1.410326658515259624e-04 -1.897025067592039704e-04 -1.080740403267554939e-04 -2.167341444874182343e-04 9.017813863465562463e-05 5.268062886898405850e-05 -3.249869041610509157e-05 1.747510686982423067e-04 -4.055558747495524585e-05 1.045125100063160062e-04 9.631905413698405027e-05 3.630875726230442524e-04 -9.168146789306774735e-05 -1.557878276798874140e-04 -1.197874516947194934e-04 -5.573073576670140028e-05 4.373442789074033499e-05 1.921120565384626389e-04 -3.952933911932632327e-05 5.658812588080763817e-04 4.897018880001269281e-05 -3.779405669774860144e-04 -4.159275704296305776e-05 6.724306877003982663e-05 4.984201950719580054e-05 -1.185040746349841356e-04 2.433897898299619555e-04 -1.968078140635043383e-04 1.028025872074067593e-05 1.515657640993595123e-04 9.866036998573690653e-05 -2.895195211749523878e-05 5.053861968917772174e-05 4.646908200811594725e-05 6.441203004214912653e-05 -5.794780736323446035e-05 1.314126711804419756e-04 -8.832284947857260704e-07 -3.432438097661361098e-05 -1.043697993736714125e-04 -1.574549241922795773e-04 8.199601143132895231e-05 -1.478731574025005102e-04
1.085914191207848489e-04 1.362421244266442955e-05 -2.584239991847425699e-04 -3.517503500916063786e-06 -9.118124580709263682e-05 1.990351302083581686e-05 -1.264972524950280786e-04 -6.065671914257109165e-05 -1.519048528280109167e-04 5.390222577261738479e-05 2.626163768582046032e-05 -1.579248637426644564e-04 4.140063538216054440e-05 3.677902714116498828e-05 7.991887105163186789e-05 -9.095921268453821540e-05 -5.687049997504800558e-05 1.637655659578740597e-04 -4.982462996849790215e-06 6.320674401649739593e-06 -7.080755312927067280e-05 2.503138675820082426e-04 2.423949481453746557e-04 -2.862080000340938568e-04 -4.728935164166614413e-05 2.204978954978287220e-05 -1.295266993110999465e-04 4.207336314721032977e-05 1.425280643161386251e-04 -4.506013647187501192e-05 -1.145004935096949339e-04 -3.275536437286064029e-05 6.247262354008853436e-05 1.121431778301484883e-04 2.480735565768554807e-05 -4.839301254833117127e-06 -2.751451393123716116e-05 -3.662060407805256546e-06 3.696784551721066236e-05 -5.477527884067967534e-05 1.760235754773020744e-04 3.253982140449807048e-05 1.667314936639741063e-04
7.602359983138740063e-05 3.430621291045099497e-05 2.988638880196958780e-04 -3.456288686720654368e-05 -9.736242645885795355e-05 -1.566363789606839418e-04 -3.739539897651411593e-05 1.502369705121964216e-04 1.005754966172389686e-04 -5.402991882874630392e-05 1.632668427191674709e-04 2.611187665024772286e-05 2.811913145706057549e-04 -2.989716449519619346e-05 -1.061922885128296912e-04 8.867085125530138612e-05 2.101577265420928597e-04 -9.163286449620500207e-05 4.514001921052113175e-05 1.269771310035139322e-04 1.789525267668068409e-04 1.321366580668836832e-04 1.205738590215332806e-04 1.315492263529449701e-04 -8.850126323522999883e-05 1.176709483843296766e-04 -6.017195119056850672e-06 -1.114771002903580666e-04 1.000036791083402932e-04 -8.752806752454489470e-05 7.134464249247685075e-05 -8.488274033879861236e-05 -3.121094050584360957e-05 5.729983240598812699e-05 -7.089738210197538137e-05 -1.610445615369826555e-04 -5.508442336576990783e-05 2.202320683863945305e-05 -1.964238472282886505e-04 -1.163303095381706953e-04 -3.270177694503217936e-05 -7.589352753711864352e-05 2.250865800306200981e-04
1.108047581510618329e-04 1.009522020467557013e-05 8.142652404785621911e-06 -6.881834269734099507e-05 1.088204589905217290e-05 1.414659709553234279e-05 -3.709503289428539574e-05 4.997068754164502025e-05 -3.270014713052660227e-05 3.931982064386829734e-05 -2.596363992779515684e-05 1.411828852724283934e-04 -1.529778819531202316e-04 -2.063902793452143669e-04 -9.439731366001069546e-05 1.074797037290409207e-04 1.048327467287890613e-04 -1.369096280541270971e-04 8.063970017246901989e-05 2.919089607894420624e-02 -8.244188938988372684e-05 -1.739282160997390747e-04 5.609328945865854621e-05 -1.277080154977738857e-04 1.946265183505602181e-05 4.908505070488899946e-05 -1.149337622337043285e-04 -1.481372237321920693e-05 -4.091994196642190218e-04 1.679617707850411534e-05 1.417340390617027879e-04 5.689427052857354283e-05 -7.724731403868645430e-05 -1.233254588441923261e-04 1.625912991585209966e-04 2.100667916238307953e-05 -4.355614873929880559e-05 -4.817104127141647041e-05 9.027191117638722062e-05 5.461419641505926847e-05 5.157802661415189505e-06 3.205693428753875196e-05 1.702268345979973674e-04
7.761304004816338420e-06 -7.811025716364383698e-05 -6.062425381969660521e-05 -5.765653622802346945e-05 6.696995114907622337e-05 -2.474631182849407196e-04 9.462528396397829056e-07 -2.337368641747161746e-04 1.914082386065274477e-04 -2.555736318754497916e-05 1.717735285637900233e-04 1.599124952917918563e-04 3.638768976088613272e-04 -2.208546502515673637e-04 1.789469679351896048e-04 -1.591169566381722689e-04 -6.321026012301445007e-05 1.495778269600123167e-05 -1.019165792968124151e-04 1.675888081081211567e-03 -1.208302564918994904e-04 -8.419611549470573664e-05 9.128609963227063417e-05 -1.624517317395657301e-04 -2.033993951044976711e-04 -6.923837645445019007e-05 -5.414002589532174170e-05 -2.058547579508740455e-05 1.978877116926014423e-05 -2.252229023724794388e-04 -6.078844307921826839e-06 3.349721664562821388e-04 1.269547210540622473e-04 -5.006244464311748743e-05 -2.009083982557058334e-05 1.111113233491778374e-04 -5.247230728855356574e-05 2.379243233008310199e-05 4.001311754109337926e-05 -2.854462218238040805e-05 1.664818555582314730e-04 2.857459767255932093e-04 2.062108542304486036e-04
2.179841612814925611e-05 -1.378396846121177077e-04 2.315896272193640471e-04 -1.935130421770736575e-05 -7.063876546453684568e-05 -2.822874375851824880e-05 -6.698065408272668719e-05 -5.721819616155698895e-05 2.626252826303243637e-04 -2.489679027348756790e-04 3.335197106935083866e-05 -5.070673068985342979e-06 1.107129792217165232e-04 1.357815926894545555e-05 1.555997878313064575e-04 -1.079497233149595559e-04 1.172792908619157970e-04 1.313807442784309387e-04 -2.416882052784785628e-04 3.487885370850563049e-02 -3.002730227308347821e-05 -6.425711944757495075e-06 5.497325764736160636e-05 8.501743286615237594e-05 1.527729182271286845e-04 -2.587075287010520697e-04 9.901486919261515141e-07 2.501776907593011856e-04 -2.695513103390112519e-05 -1.453799995942972600e-05 -1.637922396184876561e-04 -4.919928323943167925e-05 8.329300908371806145e-05 -5.766144022345542908e-05 7.817857840564101934e-05 7.602162077091634274e-05 -2.425596903776749969e-05 -5.446641443995758891e-05 1.158678787760436535e-04 -1.592576154507696629e-04 -6.868869240861386061e-05 1.153402772615663707e-04 2.598285791464149952e-04
-7.457420724676921964e-05 4.305443326302338392e-06 -3.295237547717988491e-05 3.085075586568564177e-04 -1.731624433887191117e-05 -1.658669498283416033e-05 -1.002062253974145278e-05 -4.160899261478334665e-04 1.991999452002346516e-04 8.882734982762485743e-05 -6.806903547840192914e-05 4.673230578191578388e-04 -8.676238212501630187e-05 2.097471224260516465e-05 1.476479665143415332e-04 -1.718075072858482599e-04 -4.206654557492583990e-04 2.601274900371208787e-06 -7.160304812714457512e-05 -8.791062235832214355e-02 2.721718046814203262e-04 -1.072170416591688991e-04 -1.514232426416128874e-04 -6.055534322513267398e-05 2.247150405310094357e-04 -4.476916510611772537e-04 6.030828444636426866e-05 -4.223981231916695833e-04 6.881323497509583831e-05 -4.238371911924332380e-05 -1.802472979761660099e-05 3.949822857975959778e-04 3.824782324954867363e-04 2.261007903143763542e-04 2.205112396040931344e-04 -8.118756522890180349e-05 -1.096883424906991422e-04 -1.039860871969722211e-04 -1.514692266937345266e-04 -1.124090340454131365e-05 -2.627475987537764013e-05 3.303169796708971262e-04 1.219999103341251612e-05
-1.351535174762830138e-04 -1.051182916853576899e-04 4.278463893570005894e-05 -1.049251841322984546e-05 2.105992734868777916e-06 -7.714855019003152847e-05 7.385737262666225433e-05 1.043522352119907737e-04 6.041540109436027706e-05 -2.837945612554904073e-05 9.158322791336104274e-05 4.588059164234437048e-05 4.762832759297452867e-05 -7.941370131447911263e-05 3.758414095500484109e-05 -1.193341267935466021e-05 -5.947179306531324983e-05 2.050779294222593307e-04 -1.260382850887253881e-04 -7.879309123381972313e-04 7.522560190409421921e-05 -5.983091250527650118e-05 1.664952869759872556e-04 -1.523588434793055058e-04 -1.693253580015152693e-04 -6.869136996101588011e-05 9.102941839955747128e-05 1.187425805255770683e-04 -5.055089059169404209e-05 4.402052582008764148e-05 -3.694236147566698492e-05 2.249439130537211895e-04 -2.011838660109788179e-06 1.886086392914876342e-04 -1.249967608600854874e-04 2.036965815932489932e-05 2.196521672885864973e-04 5.773407974629662931e-05 1.734412217047065496e-05 4.532553430180996656e-05 -1.745429472066462040e-04 7.010981062194332480e-05 2.467286831233650446e-04
1.086524061975069344e-04 2.373982897552195936e-05 -1.312542008236050606e-05 4.480171628529205918e-05 1.086291886167600751e-04 -1.237500327988527715e-06 -1.654707375564612448e-06 1.047883124556392431e-04 2.491107443347573280e-04 -7.453723810613155365e-06 5.325424353941343725e-05 2.060335282294545323e-05 3.811182978097349405e-05 2.383687751716934144e-05 3.577058669179677963e-05 4.652399366023018956e-05 -6.600916094612330198e-06 1.280191645491868258e-05 -1.041840150719508529e-04 -4.610528048942796886e-05 3.958960951422341168e-05 6.055757694412022829e-06 -6.723662227159366012e-05 -3.943622868973761797e-05 5.237959703663364053e-05 -3.979430039180442691e-05 -9.771864279173314571e-05 -2.935628617706242949e-05 -5.035069625591859221e-05 -1.384585193591192365e-04 -1.387466909363865852e-05 -2.373672032263129950e-05 5.337627590051852167e-05 -3.207818372175097466e-05 4.740754957310855389e-05 -3.019369614776223898e-06 -7.862960046622902155e-06 2.950410816993098706e-05 -7.614423520863056183e-05 6.522515468532219529e-05 1.096099003916606307e-05 -8.159346180036664009e-06 5.397648783400654793e-05
-1.608022721484303474e-04 5.821579543408006430e-05 6.470779771916568279e-05 -5.590781802311539650e-05 -3.664609539555385709e-05 -1.090380101231858134e-04 2.420597593300044537e-05 -8.196315320674329996e-06 4.955165786668658257e-05 1.038669070112518966e-04 6.964173371670767665e-05 -3.610805724747478962e-04 4.539207293419167399e-05 -1.304179604630917311e-04 -7.502448715968057513e-05 -1.101696980185806751e-04 -7.414414540107827634e-06 -1.396183506585657597e-04 1.995492784772068262e-04 -1.336424320470541716e-04 -1.045341050485149026e-04 1.355445419903844595e-06 -9.189983393298462033e-05 -5.310944834491237998e-05 -1.435997546650469303e-04 -7.443971117027103901e-05 -6.704028783133253455e-05 -1.502234954386949539e-05 -8.471956243738532066e-05 -5.266466177999973297e-05 2.453347842674702406e-04 2.376454940531402826e-04 -3.987405216321349144e-05 1.178828679258003831e-04 -1.028063343255780637e-04 2.595476689748466015e-05 -8.073247590800747275e-05 5.728442920371890068e-05 6.177381874294951558e-05 1.122385365306399763e-04 6.327699520625174046e-05 6.004508759360760450e-05 -2.387930871918797493e-04
8.739980694372206926e-05 6.848335033282637596e-06 2.719108015298843384e-04 -4.076239565620198846e-05 -5.406652780948206782e-05 1.166092697530984879e-04 -5.931180203333497047e-05 -3.434259269852191210e-06 -8.536888344679027796e-05 8.464955317322164774e-05 -4.765123594552278519e-05 -7.367689249804243445e-05 -1.026011377689428627e-04 -9.512940596323460340e-05 -1.191776900668628514e-04 5.355566099751740694e-05 -1.615039218449965119e-04 -2.504547592252492905e-04 -4.786549470736645162e-05 -1.658549159765243530e-01 -5.344885357772000134e-05 -2.689711691346019506e-04 2.096979005727916956e-05 -4.811274993699043989e-05 6.694448529742658138e-05 -8.352083386853337288e-05 -1.292048546019941568e-04 2.162485179724171758e-05 -2.919694816228002310e-04 8.336744940606877208e-06 -2.913199423346668482e-04 1.243065635208040476e-04 -1.059404166880995035e-05 -2.762233270914293826e-05 -3.836893665720708668e-05 5.200539817451499403e-05 8.527106547262519598e-05 1.264899619854986668e-04 -1.423530047759413719e-04 -4.246973549015820026e-05 -1.769778755260631442e-04 8.601846639066934586e-05 -7.766717317281290889e-05
2.453118213452398777e-04 -1.809682289604097605e-04 -2.282838395331054926e-04 -4.165215359535068274e-04 9.900920122163370252e-05 -2.340195351280272007e-06 -5.040491232648491859e-04 1.166817964985966682e-03 2.474262146279215813e-07 -2.985711616929620504e-04 2.612605749163776636e-04 -1.146168098784983158e-03 -3.204731037840247154e-04 1.354199921479448676e-04 1.865658850874751806e-04 8.229597005993127823e-04 1.066919183358550072e-03 -1.158468076027929783e-04 3.830729983747005463e-04 -5.015050992369651794e-02 1.973811304196715355e-04 -1.721517473924905062e-04 -7.337915303651243448e-05 6.533341365866363049e-05 -1.049148035235702991e-03 9.888117201626300812e-04 4.027235991088673472e-05 1.324765500612556934e-03 1.605608995305374265e-04 8.451900794170796871e-05 2.578067942522466183e-04 -9.967717342078685760e-04 -1.489198766648769379e-03 -6.323687848635017872e-04 -3.522220358718186617e-04 -4.230226913932710886e-04 4.675210220739245415e-04 1.170869683846831322e-03 -4.037327016703784466e-06 2.027865848504006863e-04 1.042212097672745585e-04 -1.475479570217430592e-03 -9.157535532722249627e-05
4.918022023048251867e-05 5.336069443728774786e-05 1.412827987223863602e-05 -4.637377787730656564e-05 -1.014330337056890130e-04 -1.787769724614918232e-04 -1.556561910547316074e-04 1.002380595309659839e-04 1.402882335241883993e-04 -7.592656766064465046e-05 3.728041338035836816e-05 2.027209120569750667e-07 -2.048193709924817085e-04 1.626260345801711082e-04 -1.369479286950081587e-05 -4.476280810195021331e-05 1.171954572782851756e-04 1.582178956596180797e-04 -9.397117537446320057e-05 4.498243470152374357e-06 -1.192726995213888586e-04 -1.615162473171949387e-04 -1.184144857688806951e-04 -1.271978253498673439e-04 -8.702125342097133398e-06 1.061171496985480189e-04 2.777081972453743219e-04 6.786149606341496110e-05 -2.229274105047807097e-05 -4.566616553347557783e-06 2.977012991323135793e-05 -1.162218759418465197e-04 -4.606874426826834679e-05 5.829138171975500882e-05 -9.249107824871316552e-05 -6.969708192627876997e-05 7.866794476285576820e-05 -4.599494423018768430e-05 1.175529323518276215e-04 6.086832854634849355e-06 1.717255800031125546e-04 1.022529468173161149e-04 5.680725735146552324e-05
1.048041522153653204e-04 -9.333455818705260754e-05 2.631795723573304713e-05 -1.188463298603892326e-03 6.756548100383952260e-05 -2.501903800293803215e-04 -6.411917274817824364e-05 7.220112020149827003e-04 -1.651453494559973478e-04 -2.374633331783115864e-04 1.956763662747107446e-05 -1.631647697649896145e-03 -5.212253017816692591e-05 3.154295700369402766e-05 -6.921257590875029564e-05 -1.931657316163182259e-03 7.126911659725010395e-04 -5.617882197839207947e-05 1.375884632579982281e-03 -5.760388374328613281e-01 -9.949872037395834923e-04 -5.317563045537099242e-05 2.986862455145455897e-06 4.878250547335483134e-05 -1.402942696586251259e-03 1.278327894397079945e-03 -2.088785404339432716e-04 1.890919520519673824e-04 2.689449320314452052e-05 2.581480657681822777e-05 1.556658389745280147e-04 -8.884007693268358707e-04 -1.014854758977890015e-03 -1.869369880296289921e-04 -2.372137270867824554e-03 3.003483870998024940e-04 1.752616954036056995e-04 -2.837538486346602440e-04 3.587590981624089181e-05 -5.944744407315738499e-05 -3.710597957251593471e-05 4.754464607685804367e-04 3.758614184334874153e-05
4.087778506800532341e-06 -2.536367683205753565e-04 3.410193312447518110e-05 3.127365605905652046e-03 -1.912252191687002778e-04 -4.279337590560317039e-04 1.712037192191928625e-05 -1.350182807072997093e-03 -4.412728594616055489e-05 1.790368405636399984e-04 -3.656633198261260986e-04 2.445676131173968315e-03 -2.560426219133660197e-05 5.067482561571523547e-05 -1.109495351556688547e-04 4.220654722303152084e-03 -1.958263339474797249e-03 4.654604344977997243e-05 -4.460320342332124710e-03 -5.752438446506857872e-04 3.912212792783975601e-03 -5.673929990734905005e-06 -1.502453815191984177e-04 -4.679094854509457946e-05 3.169836942106485367e-03 -1.518979202955961227e-03 1.392647100146859884e-04 -1.471216790378093719e-03 9.047757339430972934e-05 1.965971459867432714e-04 -1.000877819024026394e-05 1.936763175763189793e-03 2.918566344305872917e-03 8.490578038617968559e-04 4.130927845835685730e-03 -7.089482387527823448e-04 -9.357118979096412659e-04 1.232765149325132370e-03 -2.368730201851576567e-05 -1.157138976850546896e-04 1.108108262997120619e-04 -1.452164491638541222e-03 3.259675577282905579e-05
3.044055483769625425e-04 4.356486897449940443e-06 -2.174578548874706030e-04 -9.293380571762099862e-06 -5.726628660340793431e-05 -1.005200392683036625e-04 -6.270657468121498823e-05 9.761338878888636827e-05 4.570718738250434399e-05 8.088922913884744048e-05 -8.701141268829815090e-06 -8.898082160158082843e-05 -1.085732801584526896e-04 1.301772281294688582e-04 -9.727843280415982008e-05 1.970864104805514216e-05 -9.731901809573173523e-05 3.457172715570777655e-05 1.113938706112094223e-04 -8.366064168512821198e-03 4.721361983683891594e-05 1.527753192931413651e-05 -8.617658750154078007e-06 1.232055074069648981e-04 -3.738106170203536749e-05 3.694409679155796766e-05 1.347548823105171323e-04 7.935372559586539865e-05 8.531604544259607792e-05 3.730557727976702154e-05 7.342597382375970483e-05 4.678075129049830139e-05 -3.728424053406342864e-05 2.827561183949001133e-05 -2.594599936855956912e-05 -1.713815436232835054e-05 -3.253042086726054549e-05 8.143072045641019940e-05 -7.688311598030850291e-06 -5.764481102232821286e-05 -3.675755579024553299e-06 -5.262548074824735522e-05 8.055299258558079600e-05
-1.409016840625554323e-05 -2.662382030393928289e-04 1.776701246853917837e-04 -6.562606722582131624e-05 -1.774736301740631461e-04 -2.211338869528844953e-05 6.097630830481648445e-06 -3.282845500507391989e-05 -2.502925926819443703e-04 -9.921204764395952225e-06 -9.690303704701364040e-05 -6.580362969543784857e-05 2.630738308653235435e-04 -2.910431358031928539e-04 -2.798772475216537714e-04 9.954617416951805353e-05 -7.409456884488463402e-05 1.245136081706732512e-04 -1.940266956808045506e-04 9.325980499852448702e-05 1.928867422975599766e-04 -3.629320417530834675e-07 -7.724582974333316088e-05 3.563291393220424652e-04 2.330123534193262458e-04 1.622164854779839516e-04 3.973726416006684303e-05 -7.108369027264416218e-05 4.482749500311911106e-05 -1.001288910629227757e-05 1.764620828907936811e-04 1.119931112043559551e-04 -9.782052075024694204e-05 -7.256747630890458822e-05 3.821134305326268077e-05 -1.002585049718618393e-04 -2.537741966079920530e-04 -1.866754610091447830e-05 1.863401848822832108e-04 4.165596037637442350e-04 1.284754835069179535e-04 2.636534045450389385e-04 -1.523904502391815186e-04
-6.408500485122203827e-05 1.669087796472012997e-04 -3.721058237715624273e-05 -8.068127499427646399e-06 -4.866035305894911289e-05 6.403806764865294099e-05 2.895190846174955368e-06 -1.190406546811573207e-04 -2.003004774451255798e-04 -8.210798114305362105e-06 -9.536563447909429669e-05 8.195157715817913413e-05 3.833408845821395516e-05 1.922380761243402958e-06 -1.005006488412618637e-04 7.111981176421977580e-06 -1.602359407115727663e-05 -4.180535906925797462e-04 4.965550033375620842e-05 -4.233859272062545642e-06 1.243275182787328959e-04 2.071321068797260523e-05 -1.725597976474091411e-04 -1.115774939535185695e-04 -1.057344125001691282e-04 1.124053451349027455e-04 2.349219284951686859e-04 -1.583865741849876940e-05 6.344603025354444981e-05 -1.547888823552057147e-04 -1.705153954389970750e-05 3.794445728999562562e-05 -1.166902802651748061e-05 5.059083559899590909e-05 4.135690687689930201e-06 -4.910822099191136658e-05 1.740184816299006343e-04 8.517917012795805931e-05 1.238565018866211176e-04 -2.516336971893906593e-04 4.384454223327338696e-05 9.301170939579606056e-05 1.579121017130091786e-04
4.268396296538412571e-04 -7.587335858261212707e-05 7.460909546352922916e-05 -4.525322932749986649e-03 -1.895436435006558895e-05 9.710065205581486225e-05 -7.178002269938588142e-04 2.141918288543820381e-03 -1.574864872964099050e-04 -8.037824300117790699e-04 7.356780406553298235e-05 -3.182452172040939331e-03 -2.473726926837116480e-04 4.373272531665861607e-05 2.991833607666194439e-04 -5.398343317210674286e-03 2.227184595540165901e-03 -1.188659516628831625e-04 4.732329864054918289e-03 1.193936634808778763e-02 -5.615108646452426910e-03 1.636030210647732019e-04 -1.305115729337558150e-04 -1.752206298988312483e-04 -3.479706589132547379e-03 3.198444843292236328e-03 -1.216590026160702109e-04 1.771303825080394745e-03 -1.115022168960422277e-04 4.847614036407321692e-05 -9.190832497552037239e-05 -3.207407891750335693e-03 -3.192477393895387650e-03 -8.905750000849366188e-04 -4.010178148746490479e-03 7.808519876562058926e-04 8.168704807758331299e-04 -3.994955332018435001e-04 -4.660348349716514349e-05 -1.451683783670887351e-05 -1.876852766145020723e-04 9.730621823109686375e-04 -3.005033067893236876e-05
4.952261224389076233e-05 -1.262381410924717784e-04 1.457457547076046467e-04 3.046295023523271084e-05 2.158660572604276240e-05 -3.241518788854591548e-05 1.425782829755917192e-04 -3.095134161412715912e-06 1.774460542947053909e-04 -1.255559982382692397e-05 1.058588532032445073e-05 -9.724416304379701614e-05 1.027614198392257094e-04 -1.557940558996051550e-04 -4.779049049830064178e-05 -1.415827282471582294e-04 7.721719157416373491e-05 2.004299749387428164e-04 -5.680477988789789379e-05 7.071707397699356079e-03 -2.208551086368970573e-05 -9.462956222705543041e-05 1.581698597874492407e-05 1.843964128056541085e-05 4.878324762103147805e-05 1.104333568946458399e-05 -1.471456052968278527e-04 1.921178482007235289e-04 1.182482810690999031e-05 6.212433072505518794e-05 -1.060873328242450953e-04 8.691345283295959234e-05 -4.237342000124044716e-05 8.792404696578159928e-05 1.169857569038867950e-05 6.825542368460446596e-05 -8.927654562285169959e-07 -1.313378597842529416e-04 3.012828528881072998e-06 -1.619379618205130100e-04 -1.633293722989037633e-04 3.180415660608559847e-05 -1.226520980708301067e-04
-3.132263736915774643e-05 -1.011584972729906440e-04 -2.303508699696976691e-05 2.850556746125221252e-03 3.658651985460892320e-05 -7.758334686513990164e-05 -5.158936619409359992e-05 -6.496973801404237747e-04 -5.904416684643365443e-05 2.644825435709208250e-04 -4.435396112967282534e-05 9.465233888477087021e-04 5.937193054705858231e-05 -1.521981175756081939e-06 -1.413101126672700047e-04 1.913385349325835705e-03 -8.730930276215076447e-04 -5.139692802913486958e-05 -1.927486970089375973e-03 -8.471529930830001831e-03 7.251461502164602280e-04 1.609346945770084858e-04 7.314966933336108923e-05 -1.934475221787579358e-05 3.840634599328041077e-03 -5.631212843582034111e-04 4.041194551973603666e-05 -3.299719246570020914e-04 -1.571257962496019900e-05 1.042565872921841219e-05 -6.950027454877272248e-06 1.326457248069345951e-03 1.484719221480190754e-03 -3.216828918084502220e-05 1.617791480384767056e-03 -1.948713179444894195e-05 -1.730239600874483585e-04 -2.118927950505167246e-04 5.595257243840023875e-05 -1.332133979303762317e-05 2.169835352106019855e-05 -3.208313719369471073e-04 -2.507560566300526261e-06
2.795663021970540285e-05 -2.118015108862891793e-04 3.400156274437904358e-04 3.863514168187975883e-03 1.839505130192264915e-04 -4.318592982599511743e-05 4.408105160109698772e-04 -3.611178137362003326e-03 4.734496178571134806e-05 6.795856170356273651e-04 -2.301732602063566446e-04 3.858512733131647110e-03 -6.565324292751029134e-05 -3.106747753918170929e-04 5.227901419857516885e-05 5.663346499204635620e-03 -2.035215031355619431e-03 1.532958413008600473e-04 -5.248078145086765289e-03 -1.235992275178432465e-02 4.248251672834157944e-03 1.124176342273131013e-04 4.082616942469030619e-05 9.640573262004181743e-05 4.265506286174058914e-03 -2.383011160418391228e-03 -3.435277321841567755e-04 -3.151192329823970795e-03 8.716579031897708774e-05 -7.141178502934053540e-05 -8.580800204072147608e-05 2.573147648945450783e-03 2.486173296347260475e-03 1.613294152775779366e-04 5.679939407855272293e-03 -6.623981171287596226e-04 -6.649947608821094036e-04 9.859132114797830582e-04 3.546610241755843163e-05 -1.568578300066292286e-04 3.184584784321486950e-05 -1.402352936565876007e-03 1.531559100840240717e-04
-1.353954430669546127e-04 -9.294688061345368624e-05 -1.142733817687258124e-04 1.348057528957724571e-03 8.492443157592788339e-05 -1.361002650810405612e-04 9.759605745784938335e-07 -1.022562733851373196e-03 -1.106440613511949778e-04 7.116604829207062721e-04 -1.338376387138850987e-05 2.268926240503787994e-03 4.748244828078895807e-05 1.458981423638761044e-04 8.655511919641867280e-06 3.027607221156358719e-03 -1.577758230268955231e-03 -3.628944978117942810e-05 -2.582620829343795776e-03 -9.477376006543636322e-03 2.450237981975078583e-03 1.089349098037928343e-06 1.949363795574754477e-04 1.266598701477050781e-05 1.680153538472950459e-03 -1.107714371755719185e-03 -1.649162732064723969e-04 -8.064677240327000618e-04 -6.539523747051134706e-05 -2.615000994410365820e-05 -2.331684299861080945e-06 2.080911071971058846e-03 1.316934125497937202e-03 3.007155319210141897e-04 3.005292965099215508e-03 -4.424167273100465536e-04 -8.996903488878160715e-05 2.385590778430923820e-04 -8.931123011279851198e-05 4.882167195319198072e-05 1.663555449340492487e-04 -3.717782674357295036e-04 1.000275588012300432e-04
-2.458701492287218571e-04 -9.607570973457768559e-06 -1.476356555940583348e-04 -1.304532488575205207e-04 -1.046794350259006023e-04 1.925973265315406024e-05 -2.567556657595559955e-05 -1.364613708574324846e-04 -1.626893645152449608e-04 -2.257229352835565805e-04 -7.501759682781994343e-05 -2.684834762476384640e-04 -1.511060690972954035e-04 -9.584335202816873789e-06 -2.032129268627613783e-04 4.010261181974783540e-05 -1.170031609944999218e-04 -2.480186230968683958e-04 3.145121445413678885e-05 -6.816643872298300266e-05 -6.833915540482848883e-05 1.513893948867917061e-04 -3.367393219377845526e-05 -1.009597253869287670e-04 -1.088087228708900511e-04 4.316693957662209868e-05 -2.734210283961147070e-05 -5.942043208051472902e-05 -9.736751962918788195e-06 2.016979851759970188e-05 -7.106245175236836076e-05 7.329256914090365171e-05 5.732110730605199933e-05 1.659955159993842244e-05 -1.959628134500235319e-04 4.713390808319672942e-05 -1.718847488518804312e-04 -8.947166497819125652e-05 1.167958034784533083e-04 4.659877595258876681e-05 -2.519389963708817959e-04 1.938729110406711698e-05 -6.811256753280758858e-05
5.920740659348666668e-05 -1.313511747866868973e-04 2.000597305595874786e-06 -3.313102206448093057e-05 4.167044244240969419e-05 -6.635564204771071672e-05 7.940834620967507362e-05 -1.365922798868268728e-05 2.312077704118564725e-04 -2.030174800893291831e-05 -1.575147616676986217e-04 -5.779682396678254008e-05 -1.095251936931163073e-04 -7.661808922421187162e-06 1.077968190656974912e-04 -1.465910827391780913e-05 -1.656022868701256812e-05 1.379234017804265022e-04 8.055885700741782784e-05 -4.167998954653739929e-02 -1.265697355847805738e-04 -8.421903476119041443e-05 1.139354717452079058e-04 4.121525853406637907e-05 -1.280483847949653864e-04 4.521384471445344388e-05 1.718664861982688308e-04 9.680922084953635931e-05 1.703401721897535026e-05 3.477545760688371956e-05 2.223864139523357153e-04 -1.163672059192322195e-04 -1.815942523535341024e-04 1.268825144506990910e-06 -1.232726790476590395e-04 5.586898259934969246e-05 6.523820047732442617e-05 -2.380502337473444641e-05 3.803703293669968843e-06 1.594400091562420130e-04 6.682314415229484439e-05 -4.355949567980132997e-05 2.514465268177445978e-05
-1.287856139242649078e-04 -9.514171324553899467e-06 3.793026553466916084e-05 2.432584762573242188e-03 -3.809233894571661949e-04 -2.561571018304675817e-04 2.532133657950907946e-05 -5.253237322904169559e-04 -2.508655888959765434e-04 8.298141765408217907e-04 -2.714631846174597740e-04 2.433042740449309349e-03 -8.950979827204719186e-05 1.081903610611334443e-04 -1.931622391566634178e-04 4.379804711788892746e-03 -1.440416090190410614e-03 2.689265784283634275e-05 -3.727113362401723862e-03 -2.206969708204269409e-01 3.048504702746868134e-03 -3.769702743738889694e-05 -8.079262624960392714e-05 2.266126102767884731e-05 2.491704421117901802e-03 -1.732843345962464809e-03 3.643801028374582529e-05 -8.409580914303660393e-04 1.851154811447486281e-04 -2.507281024008989334e-04 2.620377636048942804e-04 2.587704453617334366e-03 1.501676510088145733e-03 2.457810915075242519e-04 2.804361749440431595e-03 -9.109015809372067451e-04 -6.590838893316686153e-04 2.816224005073308945e-04 1.323894830420613289e-04 9.692976891528815031e-05 2.409099251963198185e-04 3.677676431834697723e-04 -2.787046469165943563e-05
-7.579292287118732929e-05 -3.828528861049562693e-05 -5.532269278774037957e-05 2.980487793684005737e-02 -4.945046734064817429e-03 -3.185008652508258820e-03 -1.241269893944263458e-02 -3.269849345088005066e-02 1.751316631271038204e-06 -1.489269267767667770e-02 -5.634034518152475357e-03 3.621288388967514038e-02 1.903946045786142349e-03 -1.075106702046468854e-04 -2.376840682700276375e-03 3.160480782389640808e-02 -3.349348530173301697e-02 -1.192346171592362225e-04 -3.061401471495628357e-02 5.538824014365673065e-03 3.080029226839542389e-02 -1.708751369733363390e-04 1.050547324120998383e-02 1.344594731926918030e-02 3.024190105497837067e-02 -3.415574878454208374e-02 -1.950169447809457779e-03 -3.032016381621360779e-02 -1.780008096829988062e-05 3.473784599918872118e-04 -1.706183866190258414e-05 3.551864624023437500e-02 3.390727937221527100e-02 -1.633302122354507446e-02 3.133760392665863037e-02 1.881279610097408295e-02 1.108893007040023804e-02 -2.511607296764850616e-02 -4.912028089165687561e-05 -9.404541924595832825e-05 4.965725020156241953e-05 2.982855029404163361e-02 5.249396053841337562e-05
2.015520840359386057e-05 1.219590740220155567e-05 1.365284697385504842e-04 -2.504692412912845612e-03 2.808247518260031939e-05 -4.022757275379262865e-05 4.047352558700367808e-05 6.080958992242813110e-04 -8.741844794712960720e-06 -9.309688903158530593e-05 6.454029062297195196e-06 -5.489180912263691425e-04 3.983447095379233360e-05 1.774315023794770241e-05 -4.290915967430919409e-05 -9.580387850292026997e-04 3.804722800850868225e-04 1.116317616833839566e-05 8.831242448650300503e-04 1.101679056882858276e-01 -1.118049956858158112e-03 -2.329423659830354154e-05 -7.237255340442061424e-05 6.633157317992299795e-05 -3.515452146530151367e-03 5.572314257733523846e-04 -5.612670429400168359e-05 9.501356980763375759e-04 -1.965899537026416510e-05 -3.875579932355321944e-05 8.519726179656572640e-06 -7.971227169036865234e-04 -1.532642054371535778e-03 -1.952312013600021601e-04 -1.002873177640140057e-03 2.008132869377732277e-04 -1.260521457879804075e-05 -2.999018761329352856e-06 3.468095383141189814e-05 -3.389425910427235067e-05 -2.860068161680828780e-05 -1.430579111911356449e-03 1.083015231415629387e-04
5.155370308784767985e-05 1.211380877066403627e-04 1.243105798494070768e-04 -2.907467307522892952e-03 -1.235472591361030936e-04 2.587711787782609463e-05 -2.476204535923898220e-04 3.112611360847949982e-03 -2.481533738318830729e-05 -7.239027181640267372e-04 1.775041746441274881e-04 -3.287224564701318741e-03 1.233429647982120514e-04 1.274290298169944435e-05 -4.466941027203574777e-05 -4.670375026762485504e-03 1.614927547052502632e-03 -6.736221985192969441e-05 4.444179125130176544e-03 4.258657246828079224e-02 -3.778301179409027100e-03 3.767169982893392444e-05 9.280446101911365986e-05 -7.421430200338363647e-05 -3.425701521337032318e-03 2.625902183353900909e-03 -4.085183609277009964e-04 2.015457255765795708e-03 1.248493936145678163e-05 -1.582966797286644578e-04 1.159085149993188679e-05 -2.614719793200492859e-03 -3.459461499005556107e-03 1.075860491255298257e-04 -4.883763380348682404e-03 6.245028343982994556e-04 6.253050523810088634e-04 -6.412633811123669147e-04 9.467546624364331365e-05 6.825899617979303002e-05 1.180605031549930573e-04 5.455404752865433693e-04 3.508870577206835151e-05
-1.160298052127473056e-04 -7.472836296074092388e-05 -7.030913548078387976e-05 2.684326842427253723e-02 -4.680411424487829208e-03 -2.047352027148008347e-03 -7.761523593217134476e-03 -2.978336252272129059e-02 1.075852778740227222e-04 -1.373399514704942703e-02 -3.826903179287910461e-03 3.450135141611099243e-02 1.723028603009879589e-03 -1.991708704736083746e-04 -6.689614383503794670e-04 2.757529169321060181e-02 -3.019645065069198608e-02 -9.593999129720032215e-05 -2.704958617687225342e-02 -2.625473029911518097e-02 2.676786482334136963e-02 4.353094846010208130e-05 8.425849489867687225e-03 1.218704693019390106e-02 2.691583894193172455e-02 -3.075729310512542725e-02 -2.089414745569229126e-03 -2.696443907916545868e-02 -5.689410318154841661e-05 2.302196517121046782e-04 1.184622524306178093e-04 3.213394060730934143e-02 3.086615353822708130e-02 -1.625458151102066040e-02 2.768706344068050385e-02 1.539293956011533737e-02 9.162656031548976898e-03 -2.179323509335517883e-02 1.903040174511261284e-05 -3.885223122779279947e-05 -2.208376827184110880e-04 2.614491246640682220e-02 5.297730240272358060e-06
1.472609292250126600e-04 1.024014782160520554e-04 1.516745251137763262e-04 8.311992860399186611e-05 -9.791187767405062914e-05 -8.731595880817621946e-05 1.178673846879974008e-04 1.046281540766358376e-04 5.326915561454370618e-05 -1.063284144038334489e-04 -8.303384674945846200e-05 8.986779721453785896e-05 -6.370147457346320152e-05 -1.578862575115635991e-04 -9.041446173796430230e-05 -4.357279976829886436e-05 7.178080704761669040e-05 -9.574032446835190058e-05 -2.986158142448402941e-05 1.412614900618791580e-02 -1.109992808778770268e-05 8.992084622150287032e-05 -1.065649412339553237e-04 -1.567267827340401709e-05 3.950478276237845421e-05 -4.066281690029427409e-05 1.620108669158071280e-04 -4.526190605247393250e-05 2.719715848797932267e-05 -3.439339343458414078e-05 1.080201473087072372e-04 1.117134743253700435e-04 -7.268847548402845860e-05 1.977728970814496279e-06 -8.501939737470820546e-05 7.937082409625872970e-05 2.061675331788137555e-05 6.270204721658956259e-06 -2.773129381239414215e-06 -6.634171768382657319e-06 1.588019804330542684e-04 -7.560895028291270137e-05 -1.893925218610092998e-05
8.578987035434693098e-06 3.778883183258585632e-05 -2.417730502202175558e-05 -7.385325734503567219e-04 -1.063714807969518006e-04 5.545348540181294084e-05 -2.263758942717686296e-04 1.031251507811248302e-03 -7.665231532882899046e-05 -3.921877068933099508e-04 -3.866752012982033193e-05 -1.384028699249029160e-03 4.122903555980883539e-05 -5.932077328907325864e-05 1.381522906740428880e-05 -8.263140334747731686e-04 1.086901407688856125e-03 2.227547520305961370e-05 8.879801025614142418e-04 7.331056403927505016e-04 -1.077121822163462639e-03 6.289585144259035587e-05 -2.542866859585046768e-04 -1.390072429785504937e-05 -8.597294799983501434e-04 7.172357290983200073e-04 -1.470361530664376915e-05 8.581873844377696514e-04 -2.179427610826678574e-05 -6.631707947235554457e-05 -8.730914851184934378e-05 -8.732094429433345795e-04 -8.679995662532746792e-04 -4.234570078551769257e-04 -8.167061023414134979e-04 6.029418727848678827e-05 3.485351626295596361e-04 2.864483394660055637e-04 2.449963722028769553e-05 2.041334300884045660e-05 1.452746801078319550e-04 -5.496578523889183998e-04 8.841008093440905213e-05
2.583129971753805876e-04 -5.381746086641214788e-05 -2.181703894166275859e-05 -2.103459322825074196e-03 -1.295570837100967765e-04 3.537327575031667948e-04 6.140022014733403921e-05 2.979571581818163395e-04 -4.278578489902429283e-05 -7.830077665857970715e-04 1.839658652897924185e-04 -1.650963793508708477e-03 -2.465516736265271902e-04 1.097664353437721729e-04 -5.133415106683969498e-05 -3.475917270407080650e-03 1.157138845883309841e-03 -3.191254654666408896e-05 3.235844895243644714e-03 1.670997589826583862e-01 -2.805082593113183975e-03 -2.229504752904176712e-05 1.589008898008614779e-04 1.112889731302857399e-04 -1.839296775870025158e-03 1.061102841049432755e-03 -3.184418019372969866e-04 9.268667781725525856e-04 1.215230440720915794e-07 -5.753809818997979164e-05 -1.083662937162443995e-05 -1.189260161481797695e-03 -2.622484462335705757e-03 3.913922118954360485e-04 -3.031272441148757935e-03 6.665312685072422028e-04 -9.225805115420371294e-05 -6.966600194573402405e-04 1.172162737930193543e-04 -6.068907532608136535e-05 -5.885868813493289053e-05 1.131569850258529186e-03 -5.239112215349450707e-05
-1.860896736616268754e-05 -1.313959728577174246e-06 -6.754741662007290870e-06 -2.670826390385627747e-02 5.066686309874057770e-03 3.055853303521871567e-03 8.832867257297039032e-03 2.858253940939903259e-02 1.124744085245765746e-04 1.307038776576519012e-02 4.729133099317550659e-03 -3.214199468493461609e-02 -2.637474564835429192e-03 -1.382843474857509136e-04 2.513974439352750778e-03 -2.809686772525310516e-02 2.928668260574340820e-02 -6.195101013872772455e-05 2.747473306953907013e-02 1.974848657846450806e-02 -2.726832590997219086e-02 -2.272590791108086705e-04 -1.012166030704975128e-02 -1.245829649269580841e-02 -2.646711096167564392e-02 2.964632026851177216e-02 4.129115957766771317e-03 2.605249546468257904e-02 1.337819048785604537e-05 7.833857671357691288e-05 -4.207406527712009847e-05 -3.139697015285491943e-02 -2.966254204511642456e-02 1.510302908718585968e-02 -2.793275378644466400e-02 -1.555770449340343475e-02 -9.820447303354740143e-03 2.340252511203289032e-02 3.548880340531468391e-05 8.548483492631930858e-06 -4.534899562713690102e-05 -2.779704332351684570e-02 -1.269274980586487800e-05
-1.117106992751359940e-03 -8.637677819933742285e-05 -2.907730595325119793e-05 2.723678573966026306e-02 -4.568466683849692345e-04 -5.580199067480862141e-04 -1.397193991579115391e-03 -2.746143937110900879e-02 -2.323813678231090307e-04 -7.815096527338027954e-03 -8.892462356016039848e-04 3.094401955604553223e-02 -2.854852646123617887e-04 -1.810570101952180266e-04 3.351056948304176331e-04 2.535512670874595642e-02 -2.902819216251373291e-02 1.457893631595652550e-05 -2.460375986993312836e-02 -4.465222358703613281e-01 2.534136734902858734e-02 -5.370545113692060113e-05 -3.815076197497546673e-04 -4.255830426700413227e-04 2.935869619250297546e-02 -2.910032682120800018e-02 3.761559491977095604e-04 -2.615998126566410065e-02 -3.869376087095588446e-05 6.776367081329226494e-05 -1.292752567678689957e-04 3.078736551105976105e-02 2.992524579167366028e-02 -4.817955661565065384e-03 2.851010486483573914e-02 4.827836994081735611e-03 1.925055868923664093e-03 -1.221550442278385162e-02 6.572128768311813474e-05 1.731836164253763855e-06 -4.685467138187959790e-05 1.411551702767610550e-02 6.634749297518283129e-06
-1.696362742222845554e-04 1.578680530656129122e-04 6.152985588414594531e-05 7.972626015543937683e-03 -4.587537259794771671e-04 -6.499298615381121635e-04 -2.198863076046109200e-03 -7.086958270519971848e-03 -1.363421033602207899e-04 -3.280719975009560585e-03 -1.031047664582729340e-03 9.008451364934444427e-03 -3.991759149357676506e-04 2.141220757039263844e-04 -2.273561840411275625e-04 9.189852513372898102e-03 -7.938168942928314209e-03 3.859656862914562225e-05 -9.303464554250240326e-03 2.287991642951965332e-01 8.513808250427246094e-03 -1.013664295896887779e-04 -6.130348192527890205e-04 2.713759313337504864e-04 8.406259119510650635e-03 -8.005358278751373291e-03 3.465319750830531120e-04 -6.665150634944438934e-03 -3.118867243756540120e-05 8.349011477548629045e-05 3.851399815175682306e-04 8.473725989460945129e-03 7.930376566946506500e-03 -3.077466040849685669e-03 8.618230931460857391e-03 5.377351306378841400e-03 3.569401567801833153e-03 -4.656664561480283737e-03 -6.352945638354867697e-05 2.484774449840188026e-05 -6.140042387414723635e-05 5.714419297873973846e-03 1.354572741547599435e-04
1.025387900881469250e-04 -4.209925464238040149e-05 8.849462028592824936e-05 -2.793595381081104279e-02 4.566928837448358536e-03 2.566237002611160278e-03 7.611327804625034332e-03 3.121514245867729187e-02 1.454709126846864820e-04 1.350743044167757034e-02 4.001311957836151123e-03 -3.627054020762443542e-02 -2.899280749261379242e-03 -7.090508006513118744e-05 3.177382517606019974e-03 -2.869923040270805359e-02 3.180478513240814209e-02 8.899587555788457394e-07 2.742330357432365417e-02 8.629218488931655884e-02 -2.866524830460548401e-02 2.089102054014801979e-04 -1.016972679644823074e-02 -1.417348068207502365e-02 -2.806287445127964020e-02 3.268777206540107727e-02 3.940042108297348022e-03 2.854765951633453369e-02 6.469077925430610776e-05 -6.176120368763804436e-04 -4.367499423096887767e-05 -3.388709574937820435e-02 -3.196251764893531799e-02 1.563264057040214539e-02 -2.918279170989990234e-02 -1.561148278415203094e-02 -9.748767130076885223e-03 2.263174392282962799e-02 7.873746653785929084e-06 -4.197398084215819836e-05 1.968583383131772280e-04 -2.723596245050430298e-02 -3.763103450182825327e-06
1.308400096604600549e-04 -1.166998117696493864e-06 5.590466025751084089e-05 -2.633459866046905518e-03 2.747678445302881300e-05 5.369165592128410935e-05 -2.252145350212231278e-06 -1.949963916558772326e-05 -5.920819239690899849e-05 1.120675187848974019e-05 2.042423875536769629e-05 6.481544114649295807e-04 6.315729115158319473e-05 -4.912100848741829395e-05 4.804824857274070382e-05 4.232581413816660643e-04 -5.789453862234950066e-04 -8.977734978543594480e-05 2.153117675334215164e-04 2.946884334087371826e-01 8.089492621365934610e-05 5.455051359604112804e-05 5.484701978275552392e-05 2.433886766084469855e-05 -4.193840082734823227e-03 -3.954407875426113605e-04 4.872379213338717818e-05 -7.370306993834674358e-04 -1.225801534019410610e-04 1.198430691147223115e-04 6.284897972363978624e-05 6.883832975290715694e-04 2.147075429093092680e-04 3.884554826072417200e-05 4.669105692300945520e-05 -7.072801236063241959e-05 5.682002665707841516e-06 -2.829365257639437914e-07 -7.545531843788921833e-05 -4.970988084096461535e-05 -2.014165511354804039e-05 4.923917003907263279e-06 1.215870361193083227e-04
-2.058746395050548017e-05 -1.057674580806633458e-05 5.962587238173000515e-05 5.891149048693478107e-04 4.662750288844108582e-04 -1.081719310604967177e-04 -1.535831979708746076e-04 -5.963793955743312836e-04 -3.209635906387120485e-05 1.341923780273646116e-05 2.773971937131136656e-04 9.637444745749235153e-04 -9.148308890871703625e-06 7.946230471134185791e-05 8.916108345147222281e-05 7.291791262105107307e-04 -8.991176146082580090e-04 1.295990750804776326e-05 -7.704475428909063339e-04 5.441375449299812317e-02 8.261880138888955116e-04 -1.957028871402144432e-05 4.279669083189219236e-04 -9.516179852653294802e-05 8.318427135236561298e-04 -7.011008565314114094e-04 -4.972696842742152512e-06 -8.119849953800439835e-04 6.704791303491219878e-06 7.840707257855683565e-05 -7.676918903598561883e-05 7.944386452436447144e-04 8.927006274461746216e-04 1.532837341073900461e-04 6.701879901811480522e-04 1.678664411883801222e-04 -2.547050826251506805e-06 -3.524531493894755840e-04 1.029421910061500967e-04 -2.972235961351543665e-06 7.751322118565440178e-05 2.276976738357916474e-04 -1.055642132996581495e-05
-2.553734229877591133e-04 -3.757453669095411897e-05 3.812577051576226950e-05 -1.115245558321475983e-02 4.262959409970790148e-04 6.784694851376116276e-04 1.642868388444185257e-03 1.123297959566116333e-02 2.510343038011342287e-04 2.049597911536693573e-03 1.045275828801095486e-03 -1.348415296524763107e-02 3.643597010523080826e-04 1.763398468028753996e-04 -4.211977939121425152e-04 -1.047451701015233994e-02 1.165472157299518585e-02 -2.470672916388139129e-05 1.015049125999212265e-02 -9.114673733711242676e-02 -1.039369683712720871e-02 -1.133728583226911724e-04 3.833361843135207891e-04 5.755624733865261078e-04 -1.147344522178173065e-02 1.207937113940715790e-02 -3.942114708479493856e-04 1.087343133985996246e-02 6.539787864312529564e-05 -7.604284473927691579e-05 1.890796993393450975e-04 -1.292286813259124756e-02 -1.212782785296440125e-02 1.887552905827760696e-03 -1.137338019907474518e-02 -3.742044093087315559e-03 -2.106959000229835510e-03 4.711069166660308838e-03 -2.061625491478480399e-05 2.635698183439671993e-05 9.451982623431831598e-05 -5.931811872869729996e-03 -1.238469703821465373e-04
-6.789636972825974226e-05 6.891361408634111285e-05 -2.267615673190448433e-05 -9.546112269163131714e-04 -3.126245574094355106e-04 -1.298543647862970829e-04 9.456719853915274143e-04 1.039061695337295532e-03 5.289977343636564910e-05 7.818110752850770950e-04 3.533662529662251472e-04 -9.376961970701813698e-04 2.225574571639299393e-04 -9.746152500156313181e-06 1.340116868959739804e-04 -2.025732304900884628e-03 9.725471609272062778e-04 -4.498685302678495646e-05 2.077024197205901146e-03 -7.514357566833496094e-03 -1.145157264545559883e-03 -1.370045356452465057e-04 4.777254653163254261e-04 8.117836841847747564e-05 -9.498164290562272072e-04 8.868746226653456688e-04 1.921194052556529641e-04 7.917133625596761703e-04 -2.142969606211408973e-06 -1.726596674416214228e-04 -3.857775300275534391e-04 -8.299008477479219437e-04 -8.316661696881055832e-04 3.248117864131927490e-04 -1.546137500554323196e-03 -1.825259416364133358e-03 -1.153709017671644688e-03 6.983240018598735332e-04 -3.583554644137620926e-07 8.096018973446916789e-06 3.524993735481984913e-05 -7.682464784011244774e-04 -1.026724348776042461e-04
