1.106728063859918620e-06 -1.845170394517481327e-03 1.178913180410745554e-06 3.346703670104034245e-05 -1.662972863414324820e-06 1.932401119120186195e-06 3.060823306441307068e-02 2.272769779665395617e-05 1.443969358660979196e-05 2.667241642484441400e-05 1.868380047380924225e-02 6.404890200428781100e-07 6.316342623904347420e-04 -4.794421784026781097e-06 2.940507692983374000e-05 2.223221235908567905e-05 2.094945011776871979e-05 -4.970952431904152036e-06 -8.757172152400016785e-03 -6.127314463810762390e-06 2.950850129127502441e-02 -2.813864732161164284e-03 9.664019671618007123e-06 1.638814137550070882e-05 -4.663421293571445858e-08 -3.633718961282283999e-06 1.882137916982173920e-02 9.931385284289717674e-04 -2.979589339702215511e-07 -4.363931785378305506e-11 4.768874030560255051e-03 3.662826202344149351e-05 4.465500296646496281e-06 3.641151852207258344e-05 9.475508704781532288e-04 -4.497508518397808075e-03 -1.013909422908909619e-05 2.386322557867970318e-05 1.809701882302761078e-02 7.911899956525303423e-06 7.064939942210912704e-03 -6.268683355301618576e-03 2.769031375646591187e-02 7.102128620317671448e-06 1.984604568860959262e-05 1.515547955932561308e-05 7.311443914659321308e-05 1.296904083574190736e-04 1.825040089897811413e-04 2.178994752466678619e-02 1.192736718803644180e-02 7.181254681199789047e-03 1.656493805057834834e-05 1.295273705181898549e-06 1.846424769610166550e-03 -3.623285692810895853e-06 5.527358837298379513e-08 9.845114618656225502e-06 1.216096643474884331e-05 4.177865339443087578e-04 1.038036862155422568e-05 1.423630630597472191e-03 1.974678784608840942e-02 -2.016519374592462555e-06 3.621290205046534538e-03 1.977269312192220241e-05 -9.264733642339706421e-03 -1.327449863310903311e-04 -4.795160748471971601e-06
3.381564283699844964e-06 1.526488829404115677e-02 1.253540744983183686e-06 2.217281435150653124e-04 -1.023480308504076675e-06 1.410550430591683835e-05 5.079697817564010620e-03 3.553994465619325638e-04 1.551619061501696706e-05 4.514650208875536919e-04 1.639247755520045757e-03 3.010833552252734080e-06 7.477665785700082779e-04 5.178611445444403216e-06 1.552856556372717023e-04 3.392982471268624067e-04 1.805092870199587196e-05 3.752866405193344690e-06 -2.631360478699207306e-02 4.148513198742875829e-06 1.839726231992244720e-02 1.067209430038928986e-02 1.062351020664209500e-05 1.297488925047218800e-04 -9.140736167978502635e-09 5.146383773535490036e-03 3.190134186297655106e-03 6.481336313299834728e-04 -4.536107553576584905e-06 9.165077353827655315e-04 2.986538223922252655e-03 1.106007584894541651e-05 8.383081876672804356e-06 1.741564628900960088e-04 -2.112713846145197749e-04 -1.837438531219959259e-02 7.902564902906306088e-06 2.061056875390931964e-05 1.622007228434085846e-03 7.008753527770750225e-06 1.202793046832084656e-02 -5.626673810184001923e-04 3.629307961091399193e-03 4.364358574093785137e-06 7.475026359315961599e-05 2.347577392356470227e-04 7.210629060864448547e-03 3.979021217674016953e-03 2.686633495613932610e-03 2.698142314329743385e-03 5.305100977420806885e-02 1.459107152186334133e-03 1.433609577361494303e-05 -2.824018110914039426e-06 6.156659219413995743e-04 -6.212599714672251139e-07 -4.948109904034936335e-07 1.383441576763289049e-05 1.369415713270427659e-05 7.330790976993739605e-04 1.415343467670027167e-05 -4.671956412494182587e-04 4.689956767833791673e-05 3.315258481961791404e-06 1.032294007018208504e-03 1.433530178474029526e-05 4.629475530236959457e-03 -1.565667917020618916e-04 1.793946103134658188e-05
-2.873294704386353260e-07 -1.474222261458635330e-02 6.578649447419593344e-08 -3.041637501155491918e-05 6.723519163642777130e-08 -9.947717671821010299e-07 1.931725273607298732e-04 -5.874828639207407832e-05 -1.210572804666298907e-06 -8.185640763258561492e-05 2.564595779404044151e-04 -1.311594814978889190e-07 1.297843264183029532e-04 -3.830951413874572609e-07 -1.414235521224327385e-05 -5.235355638433247805e-05 -1.408477714903710876e-06 -2.274254882195236860e-07 3.355005010962486267e-02 -3.141413458251918200e-07 -9.758058004081249237e-03 -2.285788394510746002e-02 -7.451246233358688187e-07 1.596495280864473898e-06 3.517185831469760160e-08 -7.165924762375652790e-04 1.471333380322903395e-04 1.112592071876861155e-04 -2.602146764729695860e-08 4.979782170266844332e-05 1.007938590191770345e-05 3.375440883246483281e-06 -5.693057687494729180e-07 -1.470707684347871691e-05 -6.757314258720725775e-05 -5.089653190225362778e-03 -4.639839517039945349e-07 -1.725845095279510133e-06 2.641022438183426857e-04 -5.286865416564978659e-07 -2.973446156829595566e-03 -4.638951941160485148e-05 8.795849978923797607e-03 -1.068926920311241702e-07 -4.582097972161136568e-06 -6.000931989547098055e-06 -3.852961584925651550e-03 -1.014306209981441498e-03 -3.882469318341463804e-04 5.186566268093883991e-04 -9.144672192633152008e-03 7.659105176571756601e-05 6.778199121981742792e-07 -4.945506475451111328e-07 1.115628620027564466e-04 7.295847836985558388e-08 -8.846031107623275602e-08 -9.236137543666700367e-07 -1.078986088032252155e-06 1.348740188404917717e-04 -9.892231673802598380e-07 3.102674236288294196e-05 4.433671012520790100e-03 3.046236329851126357e-08 6.162656063679605722e-05 -1.186304416478378698e-06 -9.432916529476642609e-03 2.703192876651883125e-05 -3.053179113976511871e-07
-6.744990969309583306e-05 6.225620396435260773e-03 -7.001317499089054763e-06 -8.066113106906414032e-03 -8.447735126537736505e-06 -6.180634954944252968e-05 4.534927383065223694e-02 -1.881338888779282570e-03 -1.664842275204136968e-04 -2.427326980978250504e-03 2.950174361467361450e-02 -3.011855551449116319e-05 2.701214049011468887e-03 -6.716639472870156169e-05 -5.264029023237526417e-04 -1.757427235133945942e-03 -2.815014449879527092e-04 -7.816938159521669149e-05 -9.696431457996368408e-02 -5.596888877335004508e-05 1.027447078377008438e-02 -9.599182009696960449e-02 -6.689043220831081271e-05 -9.817465208470821381e-03 9.339931239082943648e-06 -8.785299025475978851e-03 2.719252929091453552e-02 -1.088220998644828796e-02 -1.843248028308153152e-04 2.363075735047459602e-03 9.741411195136606693e-04 -5.060117109678685665e-04 -1.553935289848595858e-04 -5.449750460684299469e-04 2.229430247098207474e-03 -2.969609946012496948e-02 -2.472235610184725374e-05 -2.979414421133697033e-04 2.917419932782649994e-02 -1.250937348231673241e-04 1.643935032188892365e-02 2.933043055236339569e-02 8.615187555551528931e-02 -1.696549770713318139e-05 -9.206055547110736370e-04 -4.229522601235657930e-04 -6.730324588716030121e-03 -1.359880901873111725e-02 -1.154083106666803360e-02 2.888925932347774506e-02 -1.170102134346961975e-01 2.265083231031894684e-02 -3.916711721103638411e-04 -1.090439385734498501e-03 -7.638203096576035023e-04 -1.153396515292115510e-04 -2.032538304774789140e-06 -1.449450937798246741e-04 -1.512126036686822772e-04 2.681672573089599609e-03 -1.598061644472181797e-04 5.359803792089223862e-03 1.086202412843704224e-01 -1.896017238323111087e-05 -5.926893558353185654e-03 -2.425657148705795407e-04 6.925319321453571320e-03 5.233075353316962719e-04 -1.812758418964222074e-04
-1.313929988100426272e-05 -7.754911202937364578e-03 -4.473747139854822308e-06 -3.182750951964408159e-04 1.823060642891505267e-06 -6.289152224780991673e-05 3.904255107045173645e-03 -3.471387084573507309e-03 -8.475371287204325199e-04 -3.736767452210187912e-03 8.418496698141098022e-02 -1.121351124311331660e-05 5.069154314696788788e-03 -2.887231312342919409e-05 -3.897672286257147789e-04 -3.099306253716349602e-03 -8.902590489014983177e-04 -1.517895543656777591e-05 5.151345580816268921e-02 -1.910542778205126524e-05 1.177500188350677490e-02 2.578046917915344238e-02 -6.583186041098088026e-05 2.071122638881206512e-03 3.563273196505178930e-07 -2.273838408291339874e-02 -3.194461017847061157e-02 9.149249526672065258e-04 -3.016666232724674046e-05 -1.130117475986480713e-02 -8.570243604481220245e-03 -3.423552552703768015e-04 -8.124268060782924294e-05 -2.554529346525669098e-03 2.131973160430788994e-04 3.416888415813446045e-02 -1.260527060367166996e-04 -1.922824012581259012e-04 8.243776857852935791e-02 -5.875700662727467716e-05 -1.770617067813873291e-02 -3.489186288788914680e-03 -7.120967656373977661e-02 -1.894521483336575329e-05 -7.555633201263844967e-04 -2.193833002820611000e-03 4.563655238598585129e-03 -7.816606201231479645e-03 -7.305965758860111237e-03 -4.046226292848587036e-02 -8.178876340389251709e-02 -8.095758967101573944e-03 -4.321783781051635742e-04 -2.401400342932902277e-05 3.340507624670863152e-03 1.820159741328097880e-05 2.323225771760917269e-06 -1.834288268582895398e-04 -5.927204038016498089e-04 5.021408665925264359e-03 -4.745649348478764296e-04 -7.371032843366265297e-04 -1.044973451644182205e-02 -1.312353379034902900e-05 -8.880447712726891041e-04 -7.541468366980552673e-04 -1.943516917526721954e-02 -5.824841791763901711e-04 -1.177914324216544628e-03
-2.580311593192163855e-05 4.325193352997303009e-03 -1.494038133387221023e-05 1.139080268330872059e-03 5.556148607865907252e-06 -1.192527008242905140e-03 1.907544955611228943e-02 -5.960338283330202103e-03 -3.111772006377577782e-03 -5.681395530700683594e-03 9.373893588781356812e-02 -2.414695700281299651e-05 1.032079663127660751e-02 -9.951060201274231076e-05 -3.541902406141161919e-04 -5.104988347738981247e-03 -1.800244092009961605e-03 -2.568164381955284625e-05 4.499575868248939514e-02 -3.983130955020897090e-05 3.588783740997314453e-02 -1.503153331577777863e-02 -2.751166757661849260e-04 4.844187351409345865e-04 -3.177871349180350080e-06 1.829124242067337036e-02 -3.941297531127929688e-02 1.914663938805460930e-03 1.318458316745818593e-06 9.919309988617897034e-03 -5.300478544086217880e-03 -3.605049278121441603e-04 -4.503320669755339622e-04 -3.777293488383293152e-03 -1.415254198946058750e-03 3.671188652515411377e-02 -4.628186870831996202e-04 -3.609062405303120613e-04 9.107445925474166870e-02 -2.738340990617871284e-04 -2.024528570473194122e-02 -1.643669325858354568e-03 -1.300394833087921143e-01 -3.318456947454251349e-05 -1.759498496539890766e-03 -2.331218449398875237e-03 2.683938248082995415e-03 -5.241316277533769608e-03 -7.982049137353897095e-03 -5.488928407430648804e-02 -3.191587328910827637e-02 -7.014328613877296448e-03 -1.643840339966118336e-03 -2.437746443320065737e-04 7.196708116680383682e-03 8.517060450685676187e-06 -1.140343374572694302e-05 -8.223154000006616116e-04 -2.453469671308994293e-03 1.033941563218832016e-02 -2.233081031590700150e-03 -6.560798734426498413e-03 -5.361970514059066772e-03 -2.764118653431069106e-05 7.399516180157661438e-03 -2.152035012841224670e-03 2.093378454446792603e-02 -1.166225993074476719e-03 -2.878276398405432701e-03
-1.134089325205422938e-05 2.960444660857319832e-03 -4.602076842274982482e-06 1.484696520492434502e-03 3.990326149505563080e-06 -8.277023443952202797e-04 9.616944938898086548e-03 -4.444405436515808105e-03 -2.577782841399312019e-03 -4.263944923877716064e-03 5.479883030056953430e-02 -1.343673557130387053e-05 6.369764450937509537e-03 -5.281150879454798996e-05 -1.223862782353535295e-04 -3.787923371419310570e-03 -1.407979871146380901e-03 -1.520179012004518881e-05 4.502394422888755798e-02 -2.519888766983058304e-05 1.702173054218292236e-02 1.031977962702512741e-02 -1.285971229663118720e-04 8.062115521170198917e-04 -7.544310278717603069e-07 2.490059472620487213e-02 -4.132015258073806763e-02 3.532471135258674622e-03 1.450177114747930318e-05 1.226323749870061874e-02 -2.073210664093494415e-03 2.256091829622164369e-04 -4.963857936672866344e-04 -2.986361738294363022e-03 -1.566663966514170170e-03 5.697910487651824951e-02 -2.798979985527694225e-04 8.856906060827895999e-05 5.281688645482063293e-02 -3.121579065918922424e-04 -2.244665473699569702e-02 -2.219133544713258743e-03 -1.583076864480972290e-01 -1.936240732902660966e-05 -1.590127474628388882e-03 -1.767857116647064686e-03 2.161912620067596436e-03 1.470328192226588726e-03 -1.210106274811550975e-04 -5.318103730678558350e-02 1.481069065630435944e-02 -3.190635703504085541e-03 -1.465245382860302925e-03 -2.787147604976780713e-05 4.559621680527925491e-03 2.803621464408934116e-05 -6.411436515918467194e-06 -1.331395033048465848e-04 -2.073591575026512146e-03 6.422483362257480621e-03 -1.863478100858628750e-03 -6.078712642192840576e-03 -7.463818881660699844e-03 -1.065268133970675990e-05 1.145767793059349060e-02 -1.877261907793581486e-03 3.008000925183296204e-02 -1.124925620388239622e-04 -1.769387046806514263e-03
6.971354014240205288e-05 -9.554325602948665619e-03 2.299723064425052144e-06 1.229910552501678467e-02 -3.356295565026812255e-06 1.234901083080330864e-05 -5.011882632970809937e-02 7.127339486032724380e-04 2.418442454654723406e-04 9.796955855563282967e-04 -3.558641672134399414e-02 2.192077590734697878e-05 -5.007425352232530713e-05 7.066590478643774986e-05 5.813018651679158211e-04 6.680044461973011494e-04 3.446561750024557114e-04 4.209861435811035335e-05 9.168544411659240723e-02 5.634835906676016748e-05 -1.299898140132427216e-02 8.804854750633239746e-02 5.542471626540645957e-05 1.359730679541826248e-02 -1.680334025877527893e-05 6.621965207159519196e-03 -3.118488565087318420e-02 1.448964793235063553e-02 1.434231235180050135e-04 -1.622620155103504658e-03 1.878850744105875492e-03 6.272355094552040100e-04 1.781036989996209741e-04 4.252621438354253769e-04 -4.163342062383890152e-03 3.444481641054153442e-02 6.828253390267491341e-06 3.933922562282532454e-04 -3.489035740494728088e-02 1.424655492883175611e-04 -1.739773526787757874e-02 -3.139853850007057190e-02 -7.155688852071762085e-02 1.145379246736411005e-05 5.724366055801510811e-04 1.376431027892976999e-04 6.801270414143800735e-03 1.664129458367824554e-02 1.584793440997600555e-02 -2.843886986374855042e-02 7.418285310268402100e-02 -2.652240172028541565e-02 3.480122832115739584e-04 1.099008135497570038e-03 4.179711453616619110e-03 9.569227404426783323e-05 -4.796640132553875446e-05 1.137656290666200221e-04 2.189983206335455179e-04 -2.741210846579633653e-05 2.069828624371439219e-04 -7.373529020696878433e-03 -9.505683183670043945e-02 1.318549857387552038e-05 6.882028654217720032e-03 3.140780318062752485e-04 1.137811574153602123e-03 -2.205475233495235443e-03 2.208955411333590746e-04
-5.017262083129025996e-06 1.302404515445232391e-02 -5.501791520146070980e-07 1.667793840169906616e-04 1.407771833328297362e-06 -1.942168273671995848e-05 -5.057699512690305710e-03 3.506075518089346588e-05 -2.315187884960323572e-05 6.359738472383469343e-05 -3.476527286693453789e-03 -3.750619271158939227e-06 -9.067589417099952698e-04 -7.605076916661346331e-06 -1.293612422159640118e-05 3.309388557681813836e-05 -2.933870200649835169e-05 -5.037711616751039401e-06 -2.511139260604977608e-03 -6.194914931256789714e-06 5.170289427042007446e-03 1.772229745984077454e-02 -1.481997969676740468e-05 1.701523433439433575e-04 8.241061166813778982e-09 -4.159817472100257874e-04 -5.737318191677331924e-03 -9.048374486155807972e-04 3.115961135335965082e-06 -2.506732998881489038e-04 -1.440166612155735493e-03 -4.612396151060238481e-05 -1.413948848494328558e-05 -3.045931407541502267e-05 -2.301498752785846591e-04 6.660593207925558090e-04 -1.053963660524459556e-05 -3.388550976524129510e-05 -3.445991082116961479e-03 -1.210243044624803588e-05 3.959533933084458113e-04 1.239625387825071812e-03 -1.753438822925090790e-02 -5.268812401482136920e-06 -1.512931339675560594e-05 -2.806614975270349532e-05 3.523045219480991364e-03 9.730784804560244083e-04 5.811388255096971989e-04 -5.958827212452888489e-03 -2.095118165016174316e-03 -2.412060741335153580e-03 -2.080156082229223102e-05 -7.624450972798513249e-07 -8.897457737475633621e-04 2.170355628550169058e-08 4.214948035041743424e-08 -2.055333243333734572e-05 -2.079357182083185762e-05 -9.134770953096449375e-04 -2.038342427113093436e-05 3.222169470973312855e-04 -3.362168092280626297e-03 -2.648253484949236736e-06 -1.067410106770694256e-03 -2.617916652525309473e-05 8.335648104548454285e-03 9.959335875464603305e-05 -2.029580173257272691e-05
-1.615058499737642705e-05 -1.658193650655448437e-03 -8.571877515350934118e-06 8.213577675633132458e-04 4.577435447572497651e-06 -6.319050589809194207e-05 -1.388494763523340225e-02 -2.899061189964413643e-03 -9.140187175944447517e-04 -3.235832322388887405e-03 6.509445607662200928e-02 -1.528924076410476118e-05 3.147515468299388885e-03 -3.175522942910902202e-05 -3.398739791009575129e-04 -2.629966940730810165e-03 -1.112376572564244270e-03 -1.946307929756585509e-05 6.512735038995742798e-02 -2.492161911504808813e-05 -1.572090387344360352e-02 4.106545448303222656e-02 -6.679082434857264161e-05 4.407569300383329391e-03 2.711891283979639411e-06 -2.474289014935493469e-02 -4.522847011685371399e-02 2.686287974938750267e-03 -3.366404780535958707e-05 -1.236682943999767303e-02 -1.258802786469459534e-02 -5.547461914829909801e-04 -1.768531219568103552e-04 -3.314115805551409721e-03 2.708426909521222115e-03 3.574505820870399475e-02 -1.047128389473073184e-04 -4.209179023746401072e-04 6.355198472738265991e-02 -6.635994213866069913e-05 -2.625091373920440674e-02 -6.491350941359996796e-03 -7.625646889209747314e-02 -2.522799150028731674e-05 -8.151634829118847847e-04 -2.131431363523006439e-03 4.369751550257205963e-03 -5.754724610596895218e-03 -7.202224340289831161e-03 -5.237577110528945923e-02 -2.319944091141223907e-02 -1.265798229724168777e-02 -9.103878983296453953e-04 3.369294572621583939e-04 2.469563623890280724e-03 -1.416791747033130378e-05 -2.704976395762059838e-05 -3.265498962718993425e-04 -6.425188621506094933e-04 3.098951652646064758e-03 -5.189719959162175655e-04 -1.668988261371850967e-03 -4.047854244709014893e-02 -1.708281706669367850e-05 -4.726702463813126087e-04 -9.309991146437823772e-04 -1.053332630544900894e-02 4.561587411444634199e-04 -9.856802644208073616e-04
-2.852458783308975399e-05 6.298823747783899307e-03 -1.843171230575535446e-05 2.292221324751153588e-04 6.366033630911260843e-06 -1.039072987623512745e-03 1.839070394635200500e-02 -6.294262129813432693e-03 -3.408908843994140625e-03 -6.240071263164281845e-03 1.024155169725418091e-01 -2.770184437395073473e-05 9.482741355895996094e-03 -1.303215685766190290e-04 -5.055287037976086140e-04 -5.568956490606069565e-03 -2.196381101384758949e-03 -2.878415034501813352e-05 5.299469456076622009e-02 -4.852928759646601975e-05 3.602131828665733337e-02 -9.390768595039844513e-03 -3.260461962781846523e-04 6.760075339116156101e-04 -2.659238361957250163e-06 1.486908923834562302e-02 -3.846850618720054626e-02 1.549232983961701393e-03 -3.156862476316746324e-06 5.783783737570047379e-03 -7.717037107795476913e-03 -8.154641836881637573e-04 -5.199942970648407936e-04 -4.586263559758663177e-03 -1.789993373677134514e-03 3.316376358270645142e-02 -5.253222188912332058e-04 -5.806620465591549873e-04 9.965364634990692139e-02 -3.033113025594502687e-04 -2.245720289647579193e-02 -1.920092501677572727e-03 -1.363476514816284180e-01 -3.821484278887510300e-05 -2.082703169435262680e-03 -2.812260296195745468e-03 3.116172505542635918e-03 -6.878743879497051239e-03 -9.764187969267368317e-03 -5.344065651297569275e-02 -3.153592720627784729e-02 -8.101454004645347595e-03 -1.878187875263392925e-03 -2.105737803503870964e-04 6.163035985082387924e-03 1.256858740816824138e-05 -4.142135821894044057e-06 -9.157722815871238708e-04 -2.689262153580784798e-03 9.534814395010471344e-03 -2.451052190735936165e-03 -6.112745497375726700e-03 -1.198067422956228256e-02 -3.240011210436932743e-05 7.648628670722246170e-03 -2.475080545991659164e-03 1.387418713420629501e-02 -1.360744005069136620e-03 -3.223775420337915421e-03
-5.398001667344942689e-05 6.836339365690946579e-03 1.954550725713488646e-06 -1.557900104671716690e-02 5.020963271817890927e-06 3.810301222983980551e-06 6.021708622574806213e-02 -1.562289835419505835e-04 -2.709994732867926359e-04 -1.853865833254531026e-04 4.053790867328643799e-02 -1.239878019987372681e-05 1.387884607538580894e-03 -5.370946746552363038e-05 -5.682114278897643089e-04 -1.526840642327442765e-04 -3.684260591398924589e-04 -1.973258076759520918e-05 -1.059667617082595825e-01 -5.410817175288684666e-05 2.143245562911033630e-02 -8.735522627830505371e-02 -5.150287688593380153e-05 -1.733055897057056427e-02 1.622680974833201617e-05 4.934949334710836411e-03 3.141162171959877014e-02 -1.597535237669944763e-02 6.641535037488210946e-06 2.357146469876170158e-03 3.471518866717815399e-03 -7.251162896864116192e-04 -1.882754586404189467e-04 -3.405988973099738359e-04 5.115536972880363464e-03 -3.917977586388587952e-02 -1.399420943926088512e-05 -4.662155406549572945e-04 3.959502652287483215e-02 -1.288088096771389246e-04 2.878380939364433289e-02 3.451180830597877502e-02 8.847831189632415771e-02 -4.556453404802596197e-06 -3.935680142603814602e-04 -8.081625310296658427e-06 -4.236716777086257935e-03 -1.575734466314315796e-02 -1.528358366340398788e-02 2.914906665682792664e-02 -3.005787543952465057e-02 3.014596737921237946e-02 -3.388185286894440651e-04 -8.851872989907860756e-04 -3.409746801480650902e-03 -2.883026172639802098e-05 1.469418639317154884e-04 -1.193649077322334051e-04 -2.366264088777825236e-04 1.357004395686089993e-03 -1.949705329025164247e-04 8.402554318308830261e-03 8.721057325601577759e-02 -1.665787010551866842e-07 -3.831331385299563408e-03 -3.471060190349817276e-04 2.002743131015449762e-04 3.263889113441109657e-03 -2.213462139479815960e-04
1.202858948090579361e-05 -1.523650716990232468e-02 1.035235072777140886e-05 -2.725139027461409569e-03 -6.304067028395365924e-06 6.323341949610039592e-05 -5.716361571103334427e-03 -1.984216505661606789e-03 2.781563125608954579e-05 -2.498482586815953255e-03 5.770544987171888351e-03 1.367946788377594203e-05 -1.392579637467861176e-03 1.318151589657645673e-05 -7.578469812870025635e-04 -1.893077394925057888e-03 4.299492866266518831e-05 1.526312553323805332e-05 -4.702968150377273560e-02 1.459367740608286113e-05 6.344354711472988129e-03 -2.329635620117187500e-02 4.598607119987718761e-05 -3.243042156100273132e-03 -4.217499238734490064e-09 -1.707606203854084015e-02 -8.499933406710624695e-03 -3.193380776792764664e-03 -5.106361641082912683e-05 -1.426440314389765263e-03 -5.520324222743511200e-03 -1.662774411670397967e-05 -9.336385119240731001e-06 -9.081191383302211761e-04 -2.622763393446803093e-03 -4.786701872944831848e-03 3.865850158035755157e-05 4.128574801143258810e-05 5.556744523346424103e-03 1.051301569532370195e-05 -5.670377518981695175e-03 1.747478032484650612e-03 3.006075043231248856e-03 2.516436870791949332e-05 -5.512043135240674019e-04 -8.782196091488003731e-04 -9.657389484345912933e-03 -8.113142102956771851e-03 -7.494216784834861755e-03 -7.526370231062173843e-03 -7.256180793046951294e-02 6.441490724682807922e-03 -1.161118925665505230e-04 -3.530088361003436148e-05 -2.198603469878435135e-03 1.164726654678815976e-05 3.138130068691680208e-06 5.564687671721912920e-05 2.636265162436757237e-05 -1.402964582666754723e-03 4.643670035875402391e-05 9.579048492014408112e-04 1.524650491774082184e-02 2.089022200379986316e-05 -4.599634092301130295e-03 2.662925180629827082e-05 1.067805103957653046e-03 -1.753555843606591225e-03 4.979985078534809873e-06
-1.406411320203915238e-05 1.175418216735124588e-02 -3.048559733542788308e-07 2.135844202712178230e-03 3.910838586307363585e-06 -5.615939880954101682e-05 1.048097666352987289e-02 -5.927913298364728689e-05 -6.713871698593720794e-05 -5.815130134578794241e-05 5.972437094897031784e-03 -8.909347343433182687e-06 1.996903447434306145e-03 -2.244641473225783557e-05 -6.950485112611204386e-05 -5.982692891848273575e-05 -8.364456152776256204e-05 -1.325233279203530401e-05 -1.851219683885574341e-02 -1.766713103279471397e-05 1.360760070383548737e-02 2.449972555041313171e-02 -4.271239595254883170e-05 2.286181086674332619e-03 -2.171483686197461793e-07 -6.393113872036337852e-04 1.387850753962993622e-02 2.427599625661969185e-03 1.739109211484901607e-05 -9.714696352602913976e-05 3.508409950882196426e-03 -1.181695843115448952e-04 -4.311027441872283816e-05 -7.630918116774410009e-05 1.585324062034487724e-03 7.142163813114166260e-03 -3.005582948389928788e-05 -9.941604366758838296e-05 6.203847937285900116e-03 -3.559720062185078859e-05 -1.820339937694370747e-03 8.698320598341524601e-04 1.430408935993909836e-02 -1.268728556169662625e-05 -5.016704017180018127e-05 -6.250498699955642223e-05 1.250534085556864738e-03 3.398129716515541077e-03 4.680005367845296860e-03 1.487290021032094955e-02 -1.434016507118940353e-02 -1.189704285934567451e-03 -5.761782085755839944e-05 1.305088699155021459e-05 2.284472575411200523e-03 5.776731086371000856e-06 6.226434834388783202e-07 -5.952479477855376899e-05 -6.027100243954919279e-05 2.010206226259469986e-03 -5.728194810217246413e-05 1.025225268676877022e-03 -1.509317755699157715e-02 7.139270223888161127e-07 2.968035405501723289e-03 -7.451752026099711657e-05 1.030475739389657974e-02 6.519854650832712650e-04 -5.954616790404543281e-05
-2.674340248631779104e-05 1.583265513181686401e-02 -2.156581331291818060e-06 5.247538909316062927e-03 7.576227289973758161e-06 -1.038294140016660094e-04 1.098083052784204483e-02 -8.030125900404527783e-05 -1.171708572655916214e-04 -6.549619138240814209e-05 1.258863718248903751e-03 -1.989071097341366112e-05 5.226325709372758865e-03 -3.909851875505410135e-05 -6.958426820347085595e-05 -7.920058124000206590e-05 -1.475451281294226646e-04 -2.685182880668435246e-05 2.308566821739077568e-03 -3.301236938568763435e-05 1.610212959349155426e-02 3.427027538418769836e-02 -7.930272840894758701e-05 5.564398597925901413e-03 -2.366165574585465947e-08 -1.974200829863548279e-03 1.361096836626529694e-02 7.387297693639993668e-03 6.188172119436785579e-05 -4.197663220111280680e-04 9.241943247616291046e-03 -1.706527400529012084e-04 -7.012968853814527392e-05 -1.245315943378955126e-04 2.228308701887726784e-03 1.240708585828542709e-02 -5.635259731207042933e-05 -1.775225537130609155e-04 1.861423603259027004e-03 -5.993410013616085052e-05 -9.140785783529281616e-03 -2.910478040575981140e-03 2.285816939547657967e-03 -2.655369462445378304e-05 -5.299786425894126296e-05 -1.193152565974742174e-04 2.583857160061597824e-03 8.080845698714256287e-03 1.054023206233978271e-02 1.386765018105506897e-02 -2.889250218868255615e-02 -1.303295046091079712e-02 -7.903741789050400257e-05 -1.602463453309610486e-05 6.356072146445512772e-03 1.351925493509043008e-05 1.139185428655764554e-06 -1.043280426529236138e-04 -1.070814178092405200e-04 5.298604257404804230e-03 -1.090698278858326375e-04 1.719195628538727760e-03 -2.474427409470081329e-02 -1.151450032921275124e-05 8.015493862330913544e-03 -1.271626824745908380e-04 8.895346894860267639e-03 3.136628365609794855e-04 -9.350579057354480028e-05
-3.462735912762582302e-05 -3.953266888856887817e-02 -6.816851964686065912e-06 -4.687233362346887589e-03 -2.368917739659082144e-05 -1.199446705868467689e-04 3.994253277778625488e-02 -4.552004858851432800e-03 -3.324566205265000463e-05 -5.636391229927539825e-03 1.663888618350028992e-02 -2.206514363933820277e-05 1.374007435515522957e-03 -1.082010021491441876e-05 -4.227315948810428381e-04 -4.312444943934679031e-03 -1.934647589223459363e-04 -6.784101424273103476e-05 -6.527274101972579956e-02 -3.752878183149732649e-05 6.147385388612747192e-02 -1.034510284662246704e-01 -6.063965702196583152e-05 -7.761123590171337128e-03 -2.203639996878337115e-05 -1.519124675542116165e-02 4.459710046648979187e-02 -7.268132176250219345e-03 -1.596048823557794094e-04 4.328677430748939514e-03 1.337612746283411980e-03 -4.696698451880365610e-04 -7.281703437911346555e-05 9.472641395404934883e-04 4.907720140181481838e-04 -3.929771855473518372e-02 -3.169500268995761871e-05 -3.106443618889898062e-04 1.704653911292552948e-02 -7.986640412127599120e-05 2.799331024289131165e-02 1.624676026403903961e-02 1.484299153089523315e-01 -1.969745062524452806e-05 -1.411883393302559853e-03 -1.155936508439481258e-03 -2.438660012558102608e-03 -1.069582998752593994e-02 -1.120651792734861374e-02 4.990403354167938232e-02 -1.282213330268859863e-01 1.710789650678634644e-02 -2.494967193342745304e-04 -1.235674251802265644e-03 -1.022056676447391510e-03 -9.791882621357217431e-05 9.485744521953165531e-05 -2.175939880544319749e-05 -2.249572571599856019e-05 1.406293245963752270e-03 -1.035230307024903595e-04 4.535561893135309219e-03 9.478596597909927368e-02 -1.034639535646419972e-05 -6.273669656366109848e-03 -1.017896938719786704e-04 -3.036244027316570282e-02 -1.141262473538517952e-03 -1.239400589838624001e-04
7.029228436294943094e-05 -9.362056851387023926e-03 2.256277866763412021e-06 1.269836723804473877e-02 -4.176609763817396015e-06 1.478169815527508035e-05 -5.313419178128242493e-02 5.742443609051406384e-04 2.465628203935921192e-04 7.966753910295665264e-04 -3.666630014777183533e-02 2.215245513070840389e-05 -4.648992035072296858e-04 7.152822217904031277e-05 5.572819500230252743e-04 5.357437185011804104e-04 3.516239521559327841e-04 4.119278310099616647e-05 9.066480398178100586e-02 5.742642679251730442e-05 -1.495161931961774826e-02 9.870307147502899170e-02 5.849423905601724982e-05 1.406498346477746964e-02 -1.754232653183862567e-05 4.931841511279344559e-03 -3.183817118406295776e-02 1.468934584408998489e-02 1.378901506541296840e-04 -1.904560020193457603e-03 9.645626996643841267e-04 6.199699128046631813e-04 1.806259097065776587e-04 3.840719582512974739e-04 -4.687572363764047623e-03 3.711550310254096985e-02 1.153878110926598310e-05 3.881950397044420242e-04 -3.593615815043449402e-02 1.450782874599099159e-04 -1.856739632785320282e-02 -3.179643303155899048e-02 -7.584286481142044067e-02 1.218538182001793757e-05 5.364516400732100010e-04 6.242131348699331284e-05 6.598323117941617966e-03 1.660358160734176636e-02 1.559567172080278397e-02 -2.923578955233097076e-02 6.877415627241134644e-02 -2.664897032082080841e-02 3.424286551307886839e-04 1.112770754843950272e-03 3.877080744132399559e-03 1.010568958008661866e-04 -6.019175998517312109e-05 1.207372915814630687e-04 2.236258733319118619e-04 -4.433231370057910681e-04 2.130869252141565084e-04 -7.912323810160160065e-03 -9.113799035549163818e-02 1.357469591312110424e-05 6.332055665552616119e-03 3.189744020346552134e-04 3.698646614793688059e-04 -2.674536546692252159e-03 2.268191310577094555e-04
-4.196245697585254675e-07 1.081193517893552780e-02 -1.752443807845338597e-07 6.760529940947890282e-04 1.601771941750484984e-07 -2.590286612758063711e-06 3.525047563016414642e-03 7.337045390158891678e-04 -7.906884320618701167e-07 8.993147639557719231e-04 -2.042079810053110123e-03 -5.224854362495534588e-07 6.208326085470616817e-04 3.389513949514366686e-07 3.691020247060805559e-04 7.047366816550493240e-04 -3.928043668111058651e-07 -5.975079488962364849e-07 -1.349263079464435577e-02 -6.937871717127563898e-07 2.003262564539909363e-02 1.688326708972454071e-02 -1.866954335127957165e-06 5.860396195203065872e-04 -1.310260344666858146e-08 8.425107225775718689e-03 1.758751022862270474e-04 6.800379487685859203e-04 -3.028515038749901578e-07 1.726785441860556602e-03 3.637531539425253868e-03 4.783362328453222290e-06 2.390813961028470658e-06 3.568074025679379702e-04 1.073282874131109565e-05 -1.334548182785511017e-02 -1.309982394559483510e-06 -3.505058657538029365e-06 -1.942119095474481583e-03 7.012185392341052648e-07 1.371257659047842026e-02 2.460089672240428627e-05 1.678158412687480450e-03 -7.287925996024569031e-07 1.679582928773015738e-04 4.823092021979391575e-04 8.917761966586112976e-03 5.715827457606792450e-03 4.178172443062067032e-03 2.927140449173748493e-04 5.917004868388175964e-02 -5.714112194254994392e-05 3.432497760513797402e-05 4.931578700961836148e-07 5.273310816846787930e-04 -1.357003469593109912e-07 5.347298426272573124e-08 -1.816056510506314225e-06 -1.278431000173441134e-06 5.882366094738245010e-04 -2.297583250765455887e-06 -1.656193944654660299e-06 -8.371504372917115688e-04 -5.520765853361808695e-07 1.528255990706384182e-03 -9.429272154193313327e-07 2.514534862712025642e-03 1.185890960186952725e-05 1.816150324884802103e-05
2.909730210376437753e-05 6.149679422378540039e-02 3.947259756387211382e-06 3.207966452464461327e-03 2.228869379905518144e-05 1.074069587048143148e-04 -3.249614685773849487e-02 2.322211163118481636e-03 5.467257324198726565e-06 3.186726709827780724e-03 -1.791220530867576599e-02 1.681836511124856770e-05 -2.522804075852036476e-03 -3.287936851847916842e-05 3.988972166553139687e-04 2.166146179661154747e-03 1.432493590982630849e-04 5.185659392736852169e-05 8.060769736766815186e-02 2.442117693135514855e-05 -3.820724785327911377e-02 9.444298595190048218e-02 4.575622369884513319e-05 5.936785601079463959e-03 1.293400964641477913e-05 3.822236321866512299e-03 -4.734887182712554932e-02 5.844498518854379654e-03 2.000093518290668726e-04 -6.600434891879558563e-03 -4.510152211878448725e-04 4.137168871238827705e-04 4.477438778849318624e-05 4.890503623755648732e-05 -2.891596523113548756e-05 4.747588187456130981e-02 3.327582453493960202e-05 2.306132228113710880e-04 -1.809694990515708923e-02 5.114985469845123589e-06 -2.676210179924964905e-02 -1.470426470041275024e-02 -1.553330421447753906e-01 1.220527246914571151e-05 2.655691350810229778e-04 -5.505089648067951202e-04 3.337881062179803848e-03 1.025343500077724457e-02 1.235612854361534119e-02 -5.326372012495994568e-02 1.245196685194969177e-01 -1.711950637400150299e-02 1.094138497137464583e-05 1.017890986986458302e-03 -1.727648923406377435e-04 8.413053728872910142e-05 -8.289792458526790142e-05 -9.840154234552755952e-05 -1.997696017497219145e-05 -2.294194884598255157e-03 8.826420526020228863e-05 -4.324638750404119492e-03 -8.330284059047698975e-02 8.185924343706574291e-06 3.990020602941513062e-03 4.410003384691663086e-05 3.927892073988914490e-02 1.355198444798588753e-03 8.987178443931043148e-05
5.303211975842714310e-03 3.043336570262908936e-01 2.123589394614100456e-03 3.027407638728618622e-02 6.893324898555874825e-04 4.094808828085660934e-03 -4.906895570456981659e-03 2.958609536290168762e-02 2.515014074742794037e-02 3.047297894954681396e-02 -5.262627080082893372e-02 5.524530075490474701e-03 2.138501219451427460e-02 1.284774672240018845e-02 1.331433467566967010e-02 3.041252307593822479e-02 2.270168066024780273e-02 7.627902552485466003e-03 1.180991411209106445e+00 5.594868678599596024e-03 -2.499167993664741516e-02 9.687749743461608887e-01 1.270147506147623062e-02 2.884612604975700378e-02 8.451820031041279435e-05 6.306081265211105347e-02 -4.767282307147979736e-02 4.051807895302772522e-02 1.075229723937809467e-03 3.674759343266487122e-02 3.726959601044654846e-02 1.458544749766588211e-02 1.396255008876323700e-02 2.337521500885486603e-02 -9.766924194991588593e-03 5.478981733322143555e-01 6.170152220875024796e-03 8.188541047275066376e-03 -5.184705927968025208e-02 1.125595904886722565e-02 4.727173224091529846e-02 1.428051153197884560e-03 -1.447241753339767456e-01 6.492260843515396118e-03 2.047224156558513641e-02 3.080660477280616760e-02 3.371964767575263977e-02 4.541762545704841614e-02 3.782172501087188721e-02 -3.388542309403419495e-02 -1.091861650347709656e-01 2.685043215751647949e-02 1.755011826753616333e-02 1.693472033366560936e-03 2.857554331421852112e-02 1.158896266133524477e-04 6.806741002947092056e-04 1.514816656708717346e-02 2.296079136431217194e-02 2.041780017316341400e-02 2.379789017140865326e-02 -3.470702096819877625e-03 -8.052007555961608887e-01 2.754528541117906570e-03 1.995265670120716095e-02 1.857827417552471161e-02 4.168291985988616943e-01 -3.493570024147629738e-03 2.930295094847679138e-02
-4.789049853570759296e-05 -1.579927466809749603e-02 -5.866320861969143152e-06 -7.165582850575447083e-03 -1.083381084754364565e-05 -6.969547393964603543e-05 4.211853817105293274e-02 -1.876838388852775097e-03 -4.951089795213192701e-05 -2.450080355629324913e-03 2.722422964870929718e-02 -2.910081457230262458e-05 2.271064091473817825e-03 -5.709824836230836809e-05 -3.833684022538363934e-04 -1.742811757139861584e-03 -2.590352669358253479e-04 -7.395487773464992642e-05 -7.787672430276870728e-02 -5.117489854455925524e-05 4.141555353999137878e-02 -1.025479361414909363e-01 -1.178148813778534532e-04 -9.035697206854820251e-03 -4.442240606294944882e-05 -1.081459783017635345e-02 2.710304036736488342e-02 -9.909344837069511414e-03 -1.571255415910854936e-04 3.510299371555447578e-03 7.018945179879665375e-04 -4.015519516542553902e-04 -1.375885185552760959e-04 1.922103459946811199e-03 1.872492721304297447e-03 -4.971180111169815063e-03 -2.134439000656129792e-06 -1.567224535392597318e-04 2.694868482649326324e-02 -1.077162378351204097e-04 2.399996481835842133e-02 2.632587403059005737e-02 1.108061969280242920e-01 -1.571558277646545321e-05 -7.660821429453790188e-04 -2.481681585777550936e-04 -5.772609729319810867e-03 -1.344185508787631989e-02 -8.253837004303932190e-03 2.931498736143112183e-02 -1.173232346773147583e-01 2.120459452271461487e-02 -3.434755781199783087e-04 -1.078372821211814880e-03 -1.159634673967957497e-03 -4.968555731466040015e-05 1.124564660130999982e-04 -1.414757280144840479e-04 -8.604121831012889743e-05 2.225210424512624741e-03 -1.032992513501085341e-04 5.175980273634195328e-03 1.094018816947937012e-01 -1.330084160144906491e-05 -5.552112590521574020e-03 -2.359227801207453012e-04 1.476069819182157516e-02 2.274134894832968712e-04 -1.715333492029458284e-04
1.141055327025242150e-05 1.210308074951171875e-02 3.871745320793706924e-06 -2.356869867071509361e-03 -3.403452865313738585e-06 4.247410834068432450e-05 -8.864194154739379883e-03 2.931509807240217924e-04 5.111292921355925500e-05 3.607886319514364004e-04 -5.123586393892765045e-03 9.372838576382491738e-06 -3.113870974630117416e-03 1.655122287047561258e-05 1.063577365130186081e-04 2.813595347106456757e-04 6.056381607777439058e-05 1.202232397190527990e-05 -3.980164602398872375e-02 1.417318799212807789e-05 8.058517239987850189e-03 6.744839716702699661e-03 3.276712232036516070e-05 -2.673628274351358414e-03 2.169049082567653386e-07 7.065075449645519257e-03 -1.281841658055782318e-02 -4.336516838520765305e-03 -4.479740528040565550e-05 1.385858398862183094e-03 -1.862626639194786549e-03 7.713057129876688123e-05 2.792139821394812316e-05 1.649714249651879072e-04 -2.202418865635991096e-03 -1.675131916999816895e-02 2.488650716259144247e-05 7.356375135714188218e-05 -5.370131693780422211e-03 2.394737384747713804e-05 1.806353591382503510e-02 -1.382476650178432465e-03 -1.954576373100280762e-02 1.488361522206105292e-05 6.146685336716473103e-05 2.426435967208817601e-04 5.598268005996942520e-03 9.855104144662618637e-04 -1.260158605873584747e-03 -1.301816012710332870e-02 5.299341678619384766e-02 3.483209293335676193e-03 3.721509710885584354e-05 -1.658690780459437519e-05 -3.879659110680222511e-03 -3.429567186685744673e-06 -7.010629587966832332e-07 4.239843110553920269e-05 4.626384907169267535e-05 -3.183610038831830025e-03 4.778090078616514802e-05 7.749565993435680866e-04 8.429785259068012238e-03 9.122351002588402480e-06 -4.429065622389316559e-03 5.498409882420673966e-05 8.949497714638710022e-03 -1.111119752749800682e-03 4.555049235932528973e-05
3.320336691103875637e-05 -1.224633399397134781e-02 1.389093085890635848e-05 -6.675360258668661118e-03 -7.854433533793780953e-06 9.218482591677457094e-05 -1.005313359200954437e-02 -3.493590702419169247e-05 9.048693755175918341e-05 -1.044513919623568654e-04 2.408143365755677223e-03 2.701658195292111486e-05 -5.876585841178894043e-03 5.182508903089910746e-05 4.256687316228635609e-05 -3.071463652304373682e-05 1.740661537041887641e-04 3.497140642139129341e-05 -3.130410984158515930e-02 4.280106077203527093e-05 1.200170838274061680e-03 -3.016822971403598785e-02 9.838055848376825452e-05 -6.942273583263158798e-03 1.211626795338816009e-06 -6.688725203275680542e-03 -7.340451236814260483e-03 -9.051069617271423340e-03 -9.540002793073654175e-06 -2.040076360572129488e-04 -1.125589106231927872e-02 1.522431848570704460e-04 5.586886982200667262e-05 -5.379446520237252116e-05 -7.400428294204175472e-04 -6.915156729519367218e-03 3.241426747990772128e-05 1.317473361268639565e-04 1.658613560721278191e-03 7.108172576408833265e-05 2.009419957175850868e-03 6.687746848911046982e-03 1.020520180463790894e-02 4.037610415252856910e-05 2.083073013636749238e-05 5.072714702691882849e-05 -2.976244315505027771e-03 -1.249323040246963501e-02 -1.376481167972087860e-02 -8.610897697508335114e-03 -6.248863413929939270e-02 1.522755622863769531e-02 6.406700413208454847e-05 -1.231328351423144341e-04 -7.199827115982770920e-03 2.363220301049295813e-05 1.187827456305967644e-05 1.328016514889895916e-04 8.585058822063729167e-05 -5.949934478849172592e-03 1.235196104971691966e-04 2.974294824525713921e-03 2.654829248785972595e-02 2.833423786796629429e-05 -9.159696288406848907e-03 1.200797341880388558e-04 5.784627515822649002e-03 -1.313206739723682404e-03 1.101684902096167207e-04
-1.174173485196661204e-05 6.929056253284215927e-03 -3.687796834128675982e-06 -1.369391474872827530e-02 7.999624358490109444e-07 1.170083050965331495e-04 -2.452832995913922787e-04 3.100693284068256617e-04 2.084198640659451485e-04 3.231691662222146988e-04 -3.680646652355790138e-03 -9.413024599780328572e-06 -1.228257641196250916e-02 4.005748996860347688e-05 3.838005359284579754e-04 3.057029098272323608e-04 2.811847953125834465e-04 -2.045309702225495130e-05 -2.307661995291709900e-02 2.114725975843612105e-05 -3.214538097381591797e-03 -3.272275254130363464e-02 6.708777073072269559e-05 -1.481190603226423264e-02 -1.449232968298019841e-06 5.961823626421391964e-04 -5.344690755009651184e-03 -1.580473035573959351e-02 6.685974949505180120e-05 1.134065882979484741e-06 -1.625097543001174927e-02 4.546477866824716330e-04 1.359557354589924216e-04 2.805922995321452618e-04 2.702439436689019203e-03 -1.048127841204404831e-02 8.262105984613299370e-05 3.049518854822963476e-04 -4.351590760052204132e-03 1.057406407198868692e-04 2.060904167592525482e-02 1.256229542195796967e-02 1.196242030709981918e-02 3.462047970970161259e-05 2.420636155875399709e-04 2.649285306688398123e-04 7.585185230709612370e-04 -2.118922770023345947e-02 -2.120913006365299225e-02 -4.784623626619577408e-03 3.652480617165565491e-02 2.709437347948551178e-02 2.197762660216540098e-04 -5.006990249967202544e-05 -1.350757200270891190e-02 2.294530168001074344e-05 1.337312824034597725e-06 1.565413840580731630e-04 1.845735969254747033e-04 -1.226172316819429398e-02 1.438761246390640736e-04 2.806443371810019016e-04 1.810103096067905426e-02 -2.770131141005549580e-05 -1.574351638555526733e-02 2.533579827286303043e-04 9.959891438484191895e-03 -6.076543359085917473e-04 9.297228098148480058e-05
-6.165174272609874606e-05 1.049883314408361912e-03 -7.131968686735490337e-06 -8.095839992165565491e-03 -1.066839195118518546e-05 -7.455010199919342995e-05 4.680499434471130371e-02 -2.025833353400230408e-03 -1.690073841018602252e-04 -2.580035943537950516e-03 2.837479859590530396e-02 -2.943603976746089756e-05 2.423230558633804321e-03 -6.544448842760175467e-05 -4.874477745033800602e-04 -1.881996751762926579e-03 -2.772313309833407402e-04 -8.039211388677358627e-05 -9.910238534212112427e-02 -5.417942156782373786e-05 1.262868754565715790e-02 -9.442765265703201294e-02 -6.326685979729518294e-05 -1.010280381888151169e-02 5.865495495527284220e-06 -7.954423315823078156e-03 2.867246046662330627e-02 -1.102617941796779633e-02 -1.850941480370238423e-04 3.024804405868053436e-03 2.134960610419511795e-03 -4.788485239259898663e-04 -1.562251127324998379e-04 -5.838021752424538136e-04 2.363711362704634666e-03 -3.361891582608222961e-02 -2.842377398337703198e-05 -2.780191716738045216e-04 2.810116857290267944e-02 -1.253951195394620299e-04 1.773184165358543396e-02 2.841075696051120758e-02 8.866961300373077393e-02 -1.619473914615809917e-05 -9.444706374779343605e-04 -4.404926439747214317e-04 -6.425725296139717102e-03 -1.274942886084318161e-02 -1.036875136196613312e-02 3.068169578909873962e-02 -1.214707121253013611e-01 2.142168022692203522e-02 -4.023795481771230698e-04 -1.127682044170796871e-03 -8.710080874152481556e-04 -1.198561803903430700e-04 -2.283309004269540310e-05 -1.471066352678462863e-04 -1.531449088361114264e-04 2.409250708296895027e-03 -1.585613208590075374e-04 5.481915082782506943e-03 1.154255494475364685e-01 -1.818927012209314853e-05 -5.535949487239122391e-03 -2.521311398595571518e-04 -1.087153796106576920e-03 6.551637197844684124e-04 -1.805839419830590487e-04
6.767833838239312172e-05 -9.018327109515666962e-03 1.516101974630146287e-06 1.261169463396072388e-02 -4.052828444400802255e-06 1.270869779546046630e-05 -5.309949815273284912e-02 5.942796124145388603e-04 2.649054513312876225e-04 8.079974213615059853e-04 -3.769623115658760071e-02 2.015487370954360813e-05 -5.238006124272942543e-04 6.866153853479772806e-05 6.076885620132088661e-04 5.595599650405347347e-04 3.655580221675336361e-04 3.751542317331768572e-05 9.884283691644668579e-02 5.564819366554729640e-05 -1.496541779488325119e-02 9.359024465084075928e-02 5.233355477685108781e-05 1.400431059300899506e-02 -1.754842742229811847e-05 4.208344034850597382e-03 -3.134082630276679993e-02 1.455389708280563354e-02 1.284757308894768357e-04 -2.003704663366079330e-03 9.994585998356342316e-04 6.925604538992047310e-04 1.909950951812788844e-04 4.762527823913842440e-04 -4.453012254089117050e-03 3.751229494810104370e-02 1.051020990416873246e-05 4.347648937255144119e-04 -3.693425655364990234e-02 1.463650842197239399e-04 -1.910466887056827545e-02 -3.208813816308975220e-02 -7.817559689283370972e-02 9.812129064812324941e-06 5.591617664322257042e-04 9.784920257516205311e-05 6.453186739236116409e-03 1.675468869507312775e-02 1.583876647055149078e-02 -2.888853289186954498e-02 6.544946879148483276e-02 -2.699452452361583710e-02 3.734449564944952726e-04 1.075359643436968327e-03 3.798620309680700302e-03 9.861520084086805582e-05 -6.295655475696548820e-05 1.131940298364497721e-04 2.373863535467535257e-04 -4.978075157850980759e-04 2.176678826799616218e-04 -7.675761356949806213e-03 -8.949189633131027222e-02 1.167031405202578753e-05 6.254442501813173294e-03 3.445061738602817059e-04 2.535776467993855476e-03 -2.501416951417922974e-03 2.356428449274972081e-04
-2.800316724460572004e-05 1.784238032996654510e-02 -3.637914232967887074e-06 4.709933418780565262e-03 8.371524018002673984e-06 -1.142383043770678341e-04 8.780317381024360657e-03 -5.089789556222967803e-05 -1.116559069487266243e-04 -2.270192999276332557e-05 -1.490150694735348225e-03 -2.262556881760247052e-05 4.184212535619735718e-03 -4.031811840832233429e-05 -4.755797635880298913e-05 -5.273936403682455420e-05 -1.512907329015433788e-04 -2.944089465017896146e-05 2.179611008614301682e-03 -3.441963781369850039e-05 1.556201744824647903e-02 4.095545411109924316e-02 -8.652432006783783436e-05 5.141471512615680695e-03 1.201456996113847708e-07 -2.206198405474424362e-03 1.064033433794975281e-02 6.468793377280235291e-03 5.706636147806420922e-05 -5.754977464675903320e-04 8.030568249523639679e-03 -1.401719928253442049e-04 -7.256494427565485239e-05 -1.147832444985397160e-04 1.635004882700741291e-03 3.760305233299732208e-03 -6.041466986062005162e-05 -1.800523459678515792e-04 -8.789369603618979454e-04 -5.990051431581377983e-05 -7.240633014589548111e-03 -4.236054141074419022e-03 -5.306588718667626381e-04 -2.473431959515437484e-05 -4.892106153420172632e-05 -1.261063880519941449e-04 3.837696509435772896e-03 7.644754834473133087e-03 9.495520032942295074e-03 1.068078447133302689e-02 -1.302461605519056320e-02 -1.161315105855464935e-02 -8.215578418457880616e-05 -1.880570744106080383e-05 5.317602772265672684e-03 7.894886039139237255e-06 3.097944272667518817e-06 -1.155577774625271559e-04 -1.032347063301131129e-04 4.256389569491147995e-03 -1.150028183474205434e-04 4.157060175202786922e-04 -2.764301374554634094e-02 -1.637508830754086375e-05 6.673797033727169037e-03 -1.177324738819152117e-04 9.025060571730136871e-03 -8.597630658186972141e-04 -9.111515828408300877e-05
8.180530858226120472e-05 -1.277411635965108871e-02 4.637935035134432837e-06 9.686957113444805145e-03 1.052800485012994613e-06 5.438843072624877095e-05 -4.663422331213951111e-02 1.712966943159699440e-03 2.442510740365833044e-04 2.218683017417788506e-03 -3.054002858698368073e-02 2.723574652918614447e-05 -1.074766973033547401e-03 7.751383964205160737e-05 7.230370538309216499e-04 1.617891248315572739e-03 3.463585744611918926e-04 6.137816671980544925e-05 1.034760624170303345e-01 5.983659139019437134e-05 -7.709182798862457275e-03 9.294338524341583252e-02 7.005961379036307335e-05 1.132747624069452286e-02 -1.527747190266381949e-05 1.087194867432117462e-02 -2.678004838526248932e-02 1.249743252992630005e-02 1.932188606588169932e-04 -1.518723089247941971e-03 1.161167747341096401e-03 6.466430495493113995e-04 1.931409497046843171e-04 6.842752918601036072e-04 -3.288629697635769844e-03 2.851781807839870453e-02 2.074990152323152870e-05 3.984053910244256258e-04 -3.011288493871688843e-02 1.474820746807381511e-04 -1.453310158103704453e-02 -2.874061092734336853e-02 -7.395236939191818237e-02 1.613578206161037087e-05 9.640061762183904648e-04 5.480474210344254971e-04 8.161974139511585236e-03 1.466566696763038635e-02 1.366884727030992508e-02 -2.633666060864925385e-02 9.154873341321945190e-02 -2.274730987846851349e-02 4.694580566138029099e-04 1.031211810186505318e-03 2.670088782906532288e-03 9.733691695146262646e-05 -4.690508649218827486e-05 1.438957842765375972e-04 2.199836890213191509e-04 -1.058306195773184299e-03 2.093236689688637853e-04 -6.455016788095235825e-03 -8.785773068666458130e-02 1.825486469897441566e-05 6.971741560846567154e-03 3.227530687581747770e-04 -9.646858088672161102e-03 -1.323634409345686436e-03 2.236801519757136703e-04
2.767527291780425003e-07 -1.399667747318744659e-02 -1.517313386045771040e-08 -1.877761096693575382e-04 -4.555214871970747481e-08 9.619434422347694635e-07 -1.615917193703353405e-03 -2.648021618369966745e-04 1.141943357652053237e-06 -3.394144296180456877e-04 -7.912215078249573708e-04 1.612286411045715795e-07 -2.921188715845346451e-04 3.753189901090081548e-07 -1.353363186353817582e-04 -2.513609069865196943e-04 1.794165882529341616e-06 2.430266476949327625e-07 2.032614871859550476e-02 3.229563958484504838e-07 -1.509086508303880692e-02 -1.103471498936414719e-02 7.240776085382094607e-07 -1.680616842349991202e-04 -5.675229530766046082e-08 -2.548357238993048668e-03 2.249068493256345391e-04 -2.741234202403575182e-04 -1.102315110301788081e-07 -2.239138266304507852e-04 -1.033969456329941750e-03 6.589785243704682216e-06 7.798024057592556346e-07 -1.232058129971846938e-04 4.307516064727678895e-06 2.222475595772266388e-03 4.207319364013528684e-07 2.066440856651752256e-06 -7.423080969601869583e-04 7.305680469471553806e-07 -6.322819273918867111e-03 -1.679961496847681701e-05 4.851169418543577194e-03 1.191512382092696498e-07 -5.088202306069433689e-05 -1.232190988957881927e-04 -6.660003680735826492e-03 -2.540999324992299080e-03 -1.290005864575505257e-03 -5.785319372080266476e-04 -2.617007493972778320e-02 3.463792745606042445e-05 -3.992721303802682087e-06 -2.837501597241498530e-06 -2.516391687095165253e-04 1.100541737741878023e-07 1.802362525893386191e-08 1.511085656602517702e-06 1.068741426024644170e-06 -2.853617188520729542e-04 1.008172603178536519e-06 -1.847797466325573623e-05 -4.830544930882751942e-04 7.986895411704608705e-08 -5.365985562093555927e-04 1.624050355530926026e-06 -7.367910817265510559e-03 -2.568330637586768717e-05 -2.212489249586724327e-07
1.507987963123014197e-05 1.132737658917903900e-02 1.910343826239113696e-06 -3.990168217569589615e-03 -4.179327333986293525e-06 5.733672514907084405e-05 -1.056607626378536224e-02 1.717655686661601067e-04 6.799012771807610989e-05 2.040906110778450966e-04 -7.141449488699436188e-03 1.008085746434517205e-05 -5.345840007066726685e-03 2.296943785040639341e-05 7.100147922756150365e-05 1.664474548306316137e-04 8.423384861089289188e-05 1.442431948817102239e-05 -4.851488769054412842e-02 1.862226235971320421e-05 -2.797624096274375916e-03 2.291175536811351776e-03 4.387817170936614275e-05 -4.512980580329895020e-03 6.713356128784653265e-07 7.117738015949726105e-03 -1.240774895995855331e-02 -6.883699446916580200e-03 -4.708167762146331370e-05 9.423990850336849689e-04 -3.655579406768083572e-03 1.098360662581399083e-04 4.228589750709943473e-05 1.276846742257475853e-04 -2.306737704202532768e-03 -1.756817102432250977e-02 3.153074794681742787e-05 1.024724842864088714e-04 -7.419712375849485397e-03 3.510286478558555245e-05 1.983000896871089935e-02 -1.611110870726406574e-03 -1.567450538277626038e-02 1.589442763361148536e-05 5.379671711125411093e-05 1.538956566946581006e-04 2.817228203639388084e-03 -1.571627333760261536e-03 -3.651916980743408203e-03 -1.304827723652124405e-02 5.358706787228584290e-02 5.452315323054790497e-03 5.376941771828569472e-05 -2.990267057612072676e-05 -6.240111310034990311e-03 -1.527158929093275219e-05 -1.686113932919397485e-06 5.795678953290916979e-05 6.150785338832065463e-05 -5.387719720602035522e-03 6.064906847313977778e-05 1.047091063810512424e-05 5.472901277244091034e-03 3.109371846221620217e-06 -7.505701854825019836e-03 7.485234527848660946e-05 1.148474030196666718e-02 -1.149250310845673084e-03 5.884586789761669934e-05
1.217299359268508852e-05 -1.559807546436786652e-02 1.559533302497584373e-06 -7.619212847203016281e-04 -3.396778765818453394e-06 4.741386510431766510e-05 -7.668367470614612103e-04 -2.001314533117692918e-05 5.482707638293504715e-05 -4.652551433537155390e-05 3.909438673872500658e-04 9.156310625257901847e-06 6.332204793579876423e-04 1.820725265133660287e-05 2.247468364657834172e-05 -1.848810097726527601e-05 6.963155465200543404e-05 1.224263723997864872e-05 1.893636770546436310e-02 1.504560623288853094e-05 -9.855176322162151337e-03 -2.880048006772994995e-02 3.613441731431521475e-05 -7.892397698014974594e-04 2.025264578264796000e-08 8.325459784828126431e-04 -2.560219960287213326e-03 4.947568522766232491e-04 -9.120203685597516596e-06 2.816941996570676565e-04 1.025135978125035763e-03 9.066148049896582961e-05 3.305379141238518059e-05 1.976339444809127599e-05 -1.562821445986628532e-03 -7.172509096562862396e-03 2.547033182054292411e-05 8.132387301884591579e-05 2.953467774204909801e-04 2.837921238096896559e-05 -7.865494262659922242e-05 -9.165146620944142342e-04 7.522908970713615417e-03 1.239425455423770472e-05 2.331154610146768391e-05 4.344119952293112874e-05 -3.542395075783133507e-03 -1.718217972666025162e-03 -1.652198960073292255e-03 -2.302527427673339844e-03 6.129451096057891846e-03 2.146808896213769913e-03 4.045841706101782620e-05 1.187012276204768568e-05 5.361348739825189114e-04 -4.459634226350317476e-07 -4.643951569960336201e-07 4.944825559505261481e-05 4.966125197825022042e-05 6.366616580635309219e-04 4.960391379427164793e-05 -2.796355329337529838e-05 9.106077253818511963e-03 6.333911187539342791e-06 7.058202172629535198e-04 6.110899994382634759e-05 -1.313166506588459015e-02 2.598730206955224276e-04 4.407271626405417919e-05
-7.060028292471542954e-05 8.163827471435070038e-03 -2.245544237666763365e-06 -1.309812907129526138e-02 4.666209861170500517e-06 -1.073407565854722634e-05 5.528702214360237122e-02 -4.260794376023113728e-04 -2.751085849013179541e-04 -5.894188070669770241e-04 4.061365127563476562e-02 -2.118712109222542495e-05 1.516333199106156826e-03 -7.128066499717533588e-05 -5.923789576627314091e-04 -4.003765643574297428e-04 -3.810629132203757763e-04 -3.695238410728052258e-05 -9.851869940757751465e-02 -6.014290920575149357e-05 1.616414636373519897e-02 -9.365945309400558472e-02 -5.834819967276416719e-05 -1.449980121105909348e-02 1.853568028309382498e-05 -2.521932125091552734e-03 3.186137974262237549e-02 -1.456693373620510101e-02 -1.122756075346842408e-04 2.138067502528429031e-03 -1.202438870677724481e-04 -7.019647746346890926e-04 -1.944704999914392829e-04 -4.135579220019280910e-04 5.164864938706159592e-03 -3.736926987767219543e-02 -8.014845661818981171e-06 -4.413094429764896631e-04 3.977371752262115479e-02 -1.519839861430227757e-04 2.141338400542736053e-02 3.328182175755500793e-02 8.294168114662170410e-02 -1.133705700340215117e-05 -4.878227191511541605e-04 -2.807137752824928612e-05 -5.996932741254568100e-03 -1.716003566980361938e-02 -1.642335951328277588e-02 3.009859658777713776e-02 -5.998023226857185364e-02 2.803767845034599304e-02 -3.555265138857066631e-04 -1.162590691819787025e-03 -3.151523647829890251e-03 -9.430438512936234474e-05 7.211991032818332314e-05 -1.262776204384863377e-04 -2.466012665536254644e-04 1.497768680565059185e-03 -2.241549955215305090e-04 8.416522294282913208e-03 9.553316980600357056e-02 -1.205231365020154044e-05 -5.601111333817243576e-03 -3.531677066348493099e-04 -1.920361421070992947e-03 3.179734805598855019e-03 -2.456577785778790712e-04
-7.980791269801557064e-05 1.177469454705715179e-02 -2.577481609478127211e-06 -1.150213275104761124e-02 3.049369752261554822e-06 -2.793195380945689976e-05 5.287956073880195618e-02 -7.634998182766139507e-04 -2.537288819439709187e-04 -1.037653186358511448e-03 3.787367790937423706e-02 -2.496791967132594436e-05 2.231427701190114021e-03 -7.726882904535159469e-05 -6.121444748714566231e-04 -7.124486728571355343e-04 -3.627269470598548651e-04 -4.786173667525872588e-05 -9.014643728733062744e-02 -6.218829366844147444e-05 1.108315866440534592e-02 -9.262894839048385620e-02 -6.881837907712906599e-05 -1.293458882719278336e-02 1.815527139115147293e-05 -6.293179467320442200e-03 3.073477745056152344e-02 -1.341600343585014343e-02 -1.650071644689887762e-04 1.867153448984026909e-03 3.524656931404024363e-04 -6.515592103824019432e-04 -1.869271800387650728e-04 -4.874048754572868347e-04 4.415107425302267075e-03 -3.356303274631500244e-02 -1.656217318668495864e-05 -4.073745512869209051e-04 3.719638288021087646e-02 -1.507030974607914686e-04 1.915545761585235596e-02 3.238144516944885254e-02 7.442775368690490723e-02 -1.358655936201103032e-05 -6.044391775503754616e-04 -1.420701737515628338e-04 -7.141089066863059998e-03 -1.591051369905471802e-02 -1.518498174846172333e-02 2.997198700904846191e-02 -7.091525942087173462e-02 2.688803896307945251e-02 -3.700841334648430347e-04 -1.114775426685810089e-03 -2.132583875209093094e-03 -9.448545461054891348e-05 7.375288259936496615e-05 -1.416892773704603314e-04 -2.295008307555690408e-04 2.208286430686712265e-03 -2.188394137192517519e-04 7.602526806294918060e-03 1.075752153992652893e-01 -1.542163045087363571e-05 -5.672587547451257706e-03 -3.290302702225744724e-04 5.579410120844841003e-03 2.468617632985115051e-03 -2.335966710234060884e-04
-1.741542655508965254e-05 -4.194552544504404068e-03 -1.158708437287714332e-05 4.085530992597341537e-03 4.266650194040266797e-06 -2.308613511559087783e-05 -1.594034954905509949e-02 -3.793920623138546944e-04 -9.378672984894365072e-05 -4.924043314531445503e-04 2.675289288163185120e-02 -1.380593585054157302e-05 4.336911719292402267e-03 -2.809584657370578498e-05 -4.336356505518779159e-05 -3.589070984162390232e-04 -1.026979371090419590e-04 -1.195673394249752164e-05 6.819259375333786011e-02 -1.974649603653233498e-05 -1.369325909763574600e-02 3.194069862365722656e-02 -5.250512549537234008e-05 8.571894839406013489e-03 6.705200803480693139e-07 -2.400883100926876068e-02 -3.257886320352554321e-02 6.578492932021617889e-03 -4.131129389861598611e-05 -1.189899910241365433e-02 -6.360587198287248611e-03 6.567247328348457813e-05 -3.511797694955021143e-05 -7.884370279498398304e-04 3.392985090613365173e-03 2.224834822118282318e-02 -3.111279875156469643e-05 3.016039772774092853e-05 2.557190135121345520e-02 -3.755362195079214871e-05 -2.638543955981731415e-02 -9.802895598113536835e-03 -8.933802694082260132e-02 -1.324110053246840835e-05 -1.134689155151136220e-04 -4.227946337778121233e-04 1.792073599062860012e-03 1.128543633967638016e-03 -3.238351491745561361e-04 -3.711825981736183167e-02 -8.047205395996570587e-03 -1.125566009432077408e-02 -1.266410108655691147e-04 3.048066573683172464e-04 4.839153029024600983e-03 1.148528644989710301e-05 -2.265649163746275008e-05 -8.398344652960076928e-05 -6.996893353061750531e-05 4.290373530238866806e-03 -5.402729948400519788e-05 -2.546765841543674469e-03 -3.088999167084693909e-02 -4.774316039402037859e-06 1.233479939401149750e-03 -1.191821575048379600e-04 -1.896822638809680939e-02 9.763418929651379585e-04 -6.177754403324797750e-05
-4.383598570711910725e-05 -5.657509341835975647e-02 -7.012381047388771549e-06 -6.144100800156593323e-03 -2.471268817316740751e-05 -1.145806600106880069e-04 4.376256093382835388e-02 -2.635139273479580879e-03 -1.751865493133664131e-04 -3.291367786005139351e-03 2.381034567952156067e-02 -2.966314059449359775e-05 2.001911401748657227e-03 -5.917430462432093918e-05 -5.333516746759414673e-04 -2.476571127772331238e-03 -2.702654455788433552e-04 -8.795180474407970905e-05 -7.645498216152191162e-02 -5.379916183301247656e-05 4.143850132822990417e-02 -1.125915944576263428e-01 -6.579346518265083432e-05 -8.646967820823192596e-03 -7.853699571569450200e-06 -1.110349688678979874e-02 3.440874814987182617e-02 -9.067572653293609619e-03 -2.055257355095818639e-04 4.541554488241672516e-03 1.746715628542006016e-03 -4.936810000799596310e-04 -1.407416566507890821e-04 -4.188676830381155014e-04 1.518491655588150024e-03 -4.405866935849189758e-02 -2.494194086466450244e-05 -2.978811389766633511e-04 2.382931672036647797e-02 -1.321448798989877105e-04 2.593560703098773956e-02 2.213487029075622559e-02 1.016561836004257202e-01 -1.829820939747150987e-05 -9.898704010993242264e-04 -5.712104029953479767e-04 -4.556891508400440216e-03 -1.111062988638877869e-02 -1.233100332319736481e-02 3.687861189246177673e-02 -1.237779557704925537e-01 1.770151220262050629e-02 -3.256218042224645615e-04 -1.209486392326653004e-03 -9.477203129790723324e-04 -8.367461123270913959e-05 1.124681875808164477e-05 -1.467342663090676069e-04 -1.550489396322518587e-04 2.037265105172991753e-03 -1.543796533951535821e-04 4.928813315927982330e-03 1.001313328742980957e-01 -1.386759868182707578e-05 -4.814012441784143448e-03 -2.481974370311945677e-04 -3.336869925260543823e-02 1.403839560225605965e-04 -1.598850649315863848e-04
9.205438800563570112e-06 5.892945919185876846e-03 8.944570254243444651e-06 1.645692624151706696e-03 -3.907256541424430907e-06 2.439866657368838787e-04 9.566415101289749146e-03 5.253762938082218170e-03 2.091849688440561295e-03 5.642949137836694717e-03 -6.409553438425064087e-02 1.518711997050559148e-05 -1.432507880963385105e-03 5.521383718587458134e-05 4.938752972520887852e-04 4.780166316777467728e-03 1.775105949491262436e-03 1.792810689948964864e-05 -9.681566059589385986e-02 2.683969978534150869e-05 5.196891725063323975e-03 -2.324680611491203308e-02 1.100509543903172016e-04 -1.392064383253455162e-03 -1.246274678123882040e-06 2.238733135163784027e-02 5.353292822837829590e-02 -5.805511027574539185e-04 5.917463204241357744e-05 1.090477872639894485e-02 1.174925174564123154e-02 1.136677572503685951e-03 3.609184059314429760e-04 4.507309757173061371e-03 -5.882509140064939857e-05 -4.723744839429855347e-02 1.910778810270130634e-04 6.254229228943586349e-04 -6.270766258239746094e-02 2.164334291592240334e-04 2.912272326648235321e-02 5.094198975712060928e-03 1.518501639366149902e-01 2.447583574394229800e-05 1.881047501228749752e-03 3.561474615707993507e-03 -4.525256808847188950e-03 4.749429877847433090e-03 7.566558197140693665e-03 6.272920221090316772e-02 4.451893735677003860e-03 1.480315439403057098e-02 1.512219547294080257e-03 -2.229568490292876959e-04 -4.783352778758853674e-04 -5.189423609408549964e-05 -2.899056016758549958e-05 8.670610841363668442e-04 1.586376805789768696e-03 -1.451980904676020145e-03 1.380845205858349800e-03 1.892268308438360691e-03 2.391882240772247314e-02 1.826720836106687784e-05 -9.941159514710307121e-04 1.910470891743898392e-03 5.237279459834098816e-03 -1.262241858057677746e-03 1.911190571263432503e-03
-1.945980443451844621e-07 9.778885869309306145e-04 1.745410190778784454e-05 4.884276539087295532e-03 -8.279684152512345463e-06 5.983789451420307159e-04 -1.345242280513048172e-02 6.811687722802162170e-03 3.217097604647278786e-03 7.060443982481956482e-03 -1.036241799592971802e-01 2.698476782825309783e-05 -4.737773444503545761e-03 1.094729086617007852e-04 6.772902561351656914e-04 6.140878424048423767e-03 2.584216883406043053e-03 2.313461664016358554e-05 -5.768123269081115723e-02 6.912110984558239579e-05 -3.371837362647056580e-02 -4.770999401807785034e-02 3.134166472591459751e-04 2.318996004760265350e-03 1.907097271214297507e-07 2.376372925937175751e-02 5.369088426232337952e-02 2.434726804494857788e-03 -4.526007160166045651e-07 1.036290079355239868e-02 1.307567954063415527e-02 1.024874043650925159e-03 6.671305163763463497e-04 5.648018326610326767e-03 9.761730907484889030e-04 -4.591282829642295837e-02 4.503171076066792011e-04 8.757232571952044964e-04 -1.021575108170509338e-01 2.515504020266234875e-04 2.455749548971652985e-02 2.869684016332030296e-03 8.156038075685501099e-02 3.600815034587867558e-05 2.117926720529794693e-03 4.624628461897373199e-03 -7.199374493211507797e-03 1.214682310819625854e-02 1.383359916508197784e-02 6.843394786119461060e-02 2.381424792110919952e-02 1.710787601768970490e-02 2.274979837238788605e-03 3.205796238034963608e-04 -1.979267457500100136e-03 1.643892119318479672e-06 -2.104591840179637074e-05 1.647993223741650581e-03 2.520121168345212936e-03 -4.720407072454690933e-03 2.220193389803171158e-03 9.482270106673240662e-04 5.298306047916412354e-02 3.402677248232066631e-05 -1.565651618875563145e-03 2.497138688340783119e-03 -2.923571446444839239e-04 1.353813684545457363e-03 3.274759743362665176e-03
1.272577173949684948e-05 2.159979008138179779e-02 -7.777931386954151094e-06 6.840153597295284271e-03 1.091679951059632003e-05 -4.500058275880292058e-05 -2.514144591987133026e-02 3.306535305455327034e-03 7.867562817409634590e-05 4.182904027402400970e-03 -1.767620258033275604e-02 6.090569513617083430e-06 2.395963296294212341e-03 2.845075141522102058e-05 3.415380488149821758e-04 3.141619497910141945e-03 1.143638073699548841e-04 3.187494075973518193e-05 4.967615008354187012e-02 1.972879181266762316e-05 -5.523713678121566772e-02 6.862642616033554077e-02 2.392467877143644728e-06 8.291808888316154480e-03 1.704056739981751889e-05 2.171424217522144318e-02 -1.870908215641975403e-02 9.543879888951778412e-03 1.101434972952120006e-04 6.609379197470843792e-04 7.238237187266349792e-03 2.503417199477553368e-04 9.111466351896524429e-05 -9.564444189891219139e-04 1.407123054377734661e-03 9.808872826397418976e-03 -3.933808329747989774e-06 1.697730185696855187e-04 -1.763397268950939178e-02 6.850824865978211164e-05 -1.343132369220256805e-02 -2.080078423023223877e-02 -8.560970425605773926e-02 -1.187157977255992591e-05 1.124604837968945503e-03 1.265365397557616234e-03 4.581368993967771530e-03 1.317477319389581680e-02 1.299342792481184006e-02 -1.511532533913850784e-02 1.112728044390678406e-01 -2.054690942168235779e-02 2.928050234913825989e-04 7.721720030531287193e-04 4.985639825463294983e-03 4.921860454487614334e-05 -5.388368299463763833e-05 -1.152252480096649379e-05 8.067641465459018946e-05 2.391932066529989243e-03 6.614443555008620024e-05 -2.603084081783890724e-03 -7.219656556844711304e-02 -1.185867768072057515e-05 9.252321906387805939e-03 1.464053930249065161e-04 3.944569732993841171e-03 2.232329919934272766e-03 5.631351814372465014e-05
-7.932751486805500463e-07 1.519941166043281555e-02 -3.797997649712669954e-08 8.995821117423474789e-04 1.415161250406526960e-07 -1.291668013436719775e-06 4.576090723276138306e-03 1.110207289457321167e-03 -1.628692871236125939e-06 1.340001123026013374e-03 8.783671655692160130e-04 -2.328647354943313985e-07 1.123600755818188190e-03 -5.025319751439383253e-07 5.478173843584954739e-04 1.061919727362692356e-03 -6.591014425794128329e-06 -3.605071867696096888e-07 -7.783185690641403198e-03 -6.324866035356535576e-07 2.533004619181156158e-02 1.106174010783433914e-02 -1.280716560358996503e-06 9.827392641454935074e-04 -1.746151312431720726e-08 7.286932319402694702e-03 2.054817043244838715e-03 1.149563817307353020e-03 1.494381194788729772e-06 1.635885331779718399e-03 3.603939898312091827e-03 -2.594290526758413762e-05 -3.300755224699969403e-08 5.574040114879608154e-04 1.130258315242826939e-04 -1.856028102338314056e-02 -4.967402560396294575e-07 -6.769977517251390964e-06 8.133252267725765705e-04 -2.170974994442076422e-06 1.070579420775175095e-02 -7.591373287141323090e-05 3.787251422181725502e-03 -2.628116533287538914e-07 2.741077623795717955e-04 6.676795310340821743e-04 1.052168849855661392e-02 5.841854028403759003e-03 3.897676011547446251e-03 2.477019559592008591e-03 5.105878412723541260e-02 1.449447881896048784e-04 4.904178058495745063e-05 1.870226697064936161e-06 1.002319273538887501e-03 -1.324103777733398601e-06 -4.307964474037362379e-08 -3.826847660093335435e-06 -1.484501353843370453e-06 1.082991249859333038e-03 -1.333260911451361608e-06 -2.191694948123767972e-04 3.386091673746705055e-03 -1.821719735062288237e-07 2.050491282716393471e-03 -5.484849680215120316e-06 -1.566520542837679386e-03 9.717373905004933476e-05 5.732892986998194829e-06
-1.033604235090024304e-06 -3.067895956337451935e-02 -1.088495249490506467e-08 -9.859388228505849838e-04 -8.850066990362392971e-08 1.451151774745085277e-06 -2.568987896665930748e-03 -1.886975718662142754e-03 -3.769485374505165964e-06 -2.229507081210613251e-03 -7.216244121082127094e-04 -6.848928535418963293e-08 -8.961142157204449177e-04 -3.461803089521708898e-06 -9.766970761120319366e-04 -1.813712762668728828e-03 -8.897028237697668374e-06 -4.921481604469590820e-07 7.526805158704519272e-03 -6.442004405471379869e-07 -2.934539876878261566e-02 -2.345896326005458832e-02 -5.949804631200095173e-07 -1.163308392278850079e-03 8.103359094846496191e-10 -9.110297076404094696e-03 4.392399860080331564e-04 -9.850449860095977783e-04 3.492719429232238326e-07 -1.929434482008218765e-03 -3.177194390445947647e-03 -4.215471926727332175e-05 -2.184940603910945356e-05 -1.296031521633267403e-03 7.646538506378419697e-06 3.612953936681151390e-03 -9.956634272612063796e-08 -4.152859219175297767e-06 -5.541394348256289959e-04 -1.147366492659784853e-05 -1.012189127504825592e-02 -5.240416794549673796e-05 6.435205228626728058e-03 -2.759567507837346056e-08 -5.752050201408565044e-04 -1.105561852455139160e-03 -1.223172526806592941e-02 -6.156498566269874573e-03 -3.821184625849127769e-03 -1.638683461351320148e-04 -4.650952294468879700e-02 1.339978916803374887e-04 -1.629302132641896605e-04 4.473076273825427052e-07 -7.584601989947259426e-04 2.344152534305976587e-07 -9.089802688322379254e-08 3.434285099501721561e-05 -3.227891511414782144e-06 -8.384572574868798256e-04 -1.366496348964574281e-06 -2.580781438155099750e-05 -1.146503444761037827e-02 -2.026070688998515834e-08 -2.288911491632461548e-03 -7.157647814892698079e-06 -4.121410660445690155e-03 -2.955171294161118567e-05 -4.594277197611518204e-05
7.141682090150425211e-06 8.755161426961421967e-03 3.430462356845964678e-06 -6.270411540754139423e-04 -2.154917410734924488e-06 2.784849493764340878e-05 -4.926171619445085526e-03 5.568307242356240749e-04 3.340146940900012851e-05 6.810394115746021271e-04 -1.880652853287756443e-03 6.373092674039071426e-06 -7.177687366493046284e-04 1.103719478123821318e-05 2.778929483611136675e-04 5.318353651091456413e-04 4.018322215415537357e-05 7.744733920844737440e-06 -2.338401041924953461e-02 8.887312105798628181e-06 1.500374544411897659e-02 6.455837748944759369e-03 2.155096262868028134e-05 -7.264616433531045914e-04 2.914361516559438314e-07 6.204210221767425537e-03 -1.051805540919303894e-02 -1.220960752107203007e-03 -2.331962605239823461e-05 1.177276717498898506e-03 4.096647317055612803e-04 6.138436583569273353e-05 1.995839556911960244e-05 2.886487054638564587e-04 -1.273302943445742130e-03 -1.351811364293098450e-02 1.668323056946974248e-05 4.561860623653046787e-05 -2.091161208227276802e-03 1.672908001637551934e-05 1.318868994712829590e-02 -2.337016921956092119e-04 -1.843072660267353058e-02 1.028164115268737078e-05 1.350410893792286515e-04 3.581288910936564207e-04 7.817876525223255157e-03 2.994251903146505356e-03 9.075565612874925137e-04 -1.013681571930646896e-02 4.905157908797264099e-02 5.152178346179425716e-04 4.529346551862545311e-05 -4.510914550337474793e-06 -1.102696405723690987e-03 1.734847842271847185e-06 -8.270089892903342843e-07 2.705312545003835112e-05 2.985246283060405403e-05 -7.672004285268485546e-04 3.030594962183386087e-05 7.506624097004532814e-04 6.460385862737894058e-03 7.849617759347893298e-06 -1.049677026458084583e-03 3.609959458117373288e-05 4.321512766182422638e-03 -4.158850060775876045e-04 3.997994645033031702e-05
-1.675519524724222720e-05 -1.209481153637170792e-02 1.091794820240465924e-05 -9.839512407779693604e-03 -6.446636689361184835e-06 6.323551497189328074e-05 2.366787008941173553e-02 -1.935605308972299099e-03 -8.023784175748005509e-05 -2.561896108090877533e-03 2.745292708277702332e-02 3.911083240382140502e-06 -4.399805795401334763e-03 -1.557265932206064463e-05 -3.878987045027315617e-04 -1.835154369473457336e-03 -9.134013816947117448e-05 -1.050014998327242211e-05 -6.102132052183151245e-02 -5.421215064416173846e-06 5.107660964131355286e-02 -5.872579663991928101e-02 2.571708864707034081e-05 -1.048067584633827209e-02 -5.841731763212010264e-06 -2.587421052157878876e-02 3.705971688032150269e-02 -1.343933772295713425e-02 -1.159843450295738876e-04 -1.938380068168044090e-03 -1.193180773407220840e-02 -2.253651182400062680e-04 -7.834925054339691997e-05 1.121853245422244072e-03 1.654442865401506424e-03 -2.072606049478054047e-02 -6.218810995051171631e-06 -1.391741243423894048e-04 2.697462216019630432e-02 -4.332736352807842195e-05 6.660741288214921951e-03 2.478929050266742706e-02 8.910707384347915649e-02 1.770830749592278153e-05 -7.185356807895004749e-04 -8.391791488975286484e-04 -6.525411736220121384e-03 -1.773387007415294647e-02 -1.850721798837184906e-02 2.671705931425094604e-02 -9.292158484458923340e-02 2.580227889120578766e-02 -1.842983765527606010e-04 -9.021551231853663921e-04 -7.738085463643074036e-03 -2.345991106267319992e-06 -4.500640716287307441e-05 6.223777745617553592e-05 -7.487040420528501272e-05 -4.406851250678300858e-03 -5.073797001386992633e-05 6.046210881322622299e-03 6.571016460657119751e-02 1.767022149579133838e-05 -1.257063914090394974e-02 -1.162537373602390289e-04 -1.504633110016584396e-02 -3.297791408840566874e-04 -5.739526750403456390e-05
-1.877670115391083527e-06 -1.446180418133735657e-02 -1.023749518935801461e-06 -5.069970502518117428e-04 6.027095764693513047e-07 -7.761509550618939102e-06 -4.944782704114913940e-03 -4.614992067217826843e-04 -9.684746146376710385e-06 -5.742645007558166981e-04 -6.489115185104310513e-04 -1.760866211952816229e-06 -7.673210348002612591e-04 -3.239410034439060837e-06 -1.931972947204485536e-04 -4.396520089358091354e-04 -1.056153905665269122e-05 -2.129849463017308153e-06 3.422121703624725342e-02 -2.385659627179848030e-06 -1.974354498088359833e-02 -1.955672167241573334e-02 -5.925836831011110917e-06 -3.964717616327106953e-04 -2.176849456247964554e-08 -6.484825164079666138e-03 -2.248469041660428047e-03 -7.079040515236556530e-04 4.201990577712422237e-06 -1.334935310296714306e-03 -3.311601234599947929e-03 -4.832728336623404175e-06 -5.191064701648429036e-06 -2.103270817315205932e-04 -1.056944602169096470e-04 1.525582838803529739e-02 -4.643050488084554672e-06 -1.141306620411342010e-05 -6.819995469413697720e-04 -4.281911515136016533e-06 -1.371433399617671967e-02 3.014146932400763035e-04 -3.429451258853077888e-03 -2.865845772248576395e-06 -9.748311276780441403e-05 -3.146093804389238358e-04 -7.673870772123336792e-03 -4.686662461608648300e-03 -3.327925922349095345e-03 -2.101030899211764336e-03 -5.490960925817489624e-02 -9.935713605955243111e-04 -1.654769221204333007e-05 1.376965656163520180e-06 -6.185242091305553913e-04 4.191248876850295346e-07 6.884700809450805536e-08 -7.596971954626496881e-06 -8.427198736171703786e-06 -7.432469283230602741e-04 -8.251220606325659901e-06 4.522469535004347563e-04 1.446519629098474979e-03 -2.216584107372909784e-06 -1.154499477706849575e-03 -9.038732059707399458e-06 -9.158964268863201141e-03 2.195379202021285892e-04 -1.539023651275783777e-05
